<?xml version="1.0"?>
<opencv_storage>
<my_nn type_id="opencv-ml-ann-mlp">
  <layer_sizes type_id="opencv-matrix">
    <rows>1</rows>
    <cols>5</cols>
    <dt>i</dt>
    <data>
      128 128 128 128 10</data></layer_sizes>
  <activation_function>SIGMOID_SYM</activation_function>
  <f_param1>1.</f_param1>
  <f_param2>1.</f_param2>
  <min_val>-9.4999999999999996e-001</min_val>
  <max_val>9.4999999999999996e-001</max_val>
  <min_val1>-9.7999999999999998e-001</min_val1>
  <max_val1>9.7999999999999998e-001</max_val1>
  <training_params>
    <train_method>BACKPROP</train_method>
    <dw_scale>1.0000000000000000e-003</dw_scale>
    <moment_scale>1.0000000000000001e-001</moment_scale>
    <term_criteria><epsilon>9.9999997473787516e-005</epsilon>
      <iterations>10000</iterations></term_criteria></training_params>
  <input_scale>
    1.1043561765559854e-002 -4.1678402103222889e-001
    8.3529188307720215e-003 -6.9863813100577188e-001
    7.9353420127227462e-003 -1.1655430348287170e+000
    9.3185971867011247e-003 -1.8297065576087659e+000
    1.2739081836049914e-002 -2.9041284861642991e+000
    8.2784378611911597e-003 -1.3932610920384723e+000
    8.6076342277731383e-003 -6.4531433805615213e-001
    2.0510700131577877e-002 -1.9874868427498962e-001
    1.0922953868176138e-002 -4.2337369193050706e-001
    7.9304726885938270e-003 -1.1607832874294786e+000
    8.4943746923571133e-003 -1.4989173582133364e+000
    1.0696955403725112e-002 -2.2912878474779186e+000
    2.0012171101169787e-002 -4.8989794855663638e+000
    1.1440196764934721e-002 -2.5205041512504178e+000
    7.8507404533917340e-003 -9.5692675386391846e-001
    1.4798477544174059e-002 -2.8679449480609326e-001
    1.3189961046162777e-002 -3.2961712654360775e-001
    7.8462135736995613e-003 -1.0284032131048015e+000
    7.8453970547117616e-003 -1.0242950394631676e+000
    7.8431372549019607e-003 -1. 8.1901505865137041e-003
    -1.3449865293172805e+000 8.9404069134814326e-003
    -1.6870547845739463e+000 7.9211486592821248e-003
    -1.1513389576266568e+000 1.3568223275910726e-002
    -3.1831051805286564e-001 1.1898629013551053e-002
    -3.7623464940848433e-001 7.8453970547117616e-003
    -9.7628120948833164e-001 8.0792710140228340e-003
    -7.8288136125881269e-001 8.6076342277731383e-003
    -6.4531433805615213e-001 8.0255609358551964e-003
    -8.0632810722537163e-001 8.0048684404679018e-003
    -1.2247448713915889e+000 7.8736834093533770e-003
    -1.0922373625455004e+000 1.2155827355819221e-002
    -3.6576884513660035e-001 1.2533387688246923e-002
    -3.5156152465532620e-001 7.9855269607659336e-003
    -8.2674160624809712e-001 8.4350609954194009e-003
    -6.7969721501089531e-001 8.0960578411158196e-003
    -7.7625002580618474e-001 8.2218418566424971e-003
    -7.3379938570534287e-001 7.8447063530980941e-003
    -9.8019605881960692e-001 7.8441413692646594e-003
    -1.0161300729745439e+000 1.1817315504468616e-002
    -3.7969034715857669e-001 1.4798477544174059e-002
    -2.8679449480609326e-001 7.8892825046985669e-003
    -8.9724809925936799e-001 7.8554642949045256e-003
    -9.4548368253470871e-001 7.9675087393357748e-003
    -8.3706646815461649e-001 7.9403505285065082e-003
    -8.5446112037258537e-001 7.8507404533917340e-003
    -1.0450120617509737e+000 7.8537627297958369e-003
    -9.4928430115042284e-001 1.2434958074309830e-002
    -3.5514240260228874e-001 2.2281639928698752e-002
    -1.8181818181818182e-001 7.8635460504317654e-003
    -9.3041476868708639e-001 7.9733694055122029e-003
    -1.1995934270593109e+000 7.9041396825023282e-003
    -1.1327422578994086e+000 8.0711217877203253e-003
    -1.2719280825268462e+000 8.8964952039292614e-003
    -1.6696942198734439e+000 7.8635460504317654e-003
    -9.3041476868708639e-001 1.4455093740676191e-002
    -2.9488391230979427e-001 2.9496319111537529e-002
    -1.3538810472195725e-001 7.9211486592821265e-003
    -8.6855395049028516e-001 7.8892825046985686e-003
    -1.1145189394387669e+000 8.2903425328704778e-003
    -1.3994927229738654e+000 1.0539566544403895e-002
    -2.2414496169983762e+000 1.0207435417555951e-002
    -2.1343747458109492e+000 7.8635460504317672e-003
    -1.0747894741730140e+000 1.5171187759563061e-002
    -2.7854300726557779e-001 2.6734930026805628e-002
    -1.4998295745037957e-001 8.3794201441260274e-003
    -6.9230769230769240e-001 7.8462135736995613e-003
    -9.7238124818858673e-001 7.8447063530980941e-003
    -1.0202040612204073e+000 8.1600946259041945e-003
    -1.3275657946883535e+000 9.6280120811811018e-003
    -1.9395630337539329e+000 8.1224806013228765e-003
    -1.3048765086025202e+000 1.3189961046162777e-002
    -3.2961712654360775e-001 2.2281639928698752e-002
    -1.8181818181818182e-001 8.0185115165345832e-003
    -8.0970929293966221e-001 8.1409417618935540e-003
    -7.5979409463752534e-001 8.8331683450913190e-003
    -6.0816364055953731e-001 7.9733694055122029e-003
    -8.3361577134630083e-001 8.0327637909860562e-003
    -1.2453996981544782e+000 8.1409417618935540e-003
    -1.3161460546453307e+000 1.0344158626130818e-002
    -4.5897031824142437e-001 1.7350714810519571e-002
    -2.3891934294085448e-001 7.9793751641300485e-003
    -8.3017419207609033e-001 8.1699346405228763e-003
    -7.5000000000000000e-001 9.2086052314096691e-003
    -5.5887025149425285e-001 8.0255609358551964e-003
    -8.0632810722537163e-001 7.8736834093533770e-003
    -9.1555190683961063e-001 8.0711217877203253e-003
    -1.2719280825268462e+000 9.2086052314096691e-003
    -5.5887025149425285e-001 1.6261573095490849e-002
    -2.5709547063971033e-001 7.8736834093533770e-003
    -1.0922373625455004e+000 7.9403505285065082e-003
    -8.5446112037258537e-001 8.4791911777335402e-003
    -6.7028006259983630e-001 7.9982725852539432e-003
    -8.1990292271438181e-001 7.9675087393357748e-003
    -8.3706646815461649e-001 8.0327637909860562e-003
    -1.2453996981544782e+000 8.9182777324241912e-003
    -5.9583013530326023e-001 1.7056102956843653e-002
    -2.4356115022372735e-001 8.1799526963899222e-003
    -1.3391400559259943e+000 8.0792710140228340e-003
    -1.2773327473170100e+000 8.0327637909860562e-003
    -8.0295506854696608e-001 7.9562190338381793e-003
    -8.4399571510955407e-001 7.8554642949045256e-003
    -9.4548368253470871e-001 7.9562190338381793e-003
    -1.1848401385191816e+000 8.7340275134779218e-003
    -6.2360956446232363e-001 3.6015605802482600e-002
    -1.1020775375559676e-001 8.0711217877203253e-003
    -1.2719280825268462e+000 8.2903425328704778e-003
    -1.3994927229738654e+000 8.2439034346378729e-003
    -1.3748357757945582e+000 7.9123727615645501e-003
    -1.1419927606766116e+000 8.2005301477719710e-003
    -1.3508733312424768e+000 7.9353420127227462e-003
    -1.1655430348287170e+000 1.0807526200907457e-002
    -4.2992339227209864e-001 3.9413247657224003e-002
    -1.0050378152592120e-001 9.0325162225944784e-003
    -5.8042949246392128e-001 8.2784378611911597e-003
    -1.3932610920384723e+000 9.6619672547235708e-003
    -1.9513309067639724e+000 1.1043561765559852e-002
    -2.3993242291855332e+000 9.0808198260364272e-003
    -1.7413380098407452e+000 7.8658868340444211e-003
    -1.0791210147625541e+000 1.2957510378066138e-002
    -3.3702484493350027e-001 4.4020907359503647e-002
    -8.9802651013387441e-002 1.2434958074309830e-002
    -3.5514240260228874e-001 8.2110932619216676e-003
    -7.3702773119008891e-001 8.6248542551829385e-003
    -1.5571311872307276e+000 9.0325162225944802e-003
    -1.7228621442976713e+000 7.9617922464749798e-003
    -1.1897306153907563e+000 9.4059994663399041e-003
    -5.3727068951733525e-001 1.7056102956843653e-002
    -2.4356115022372735e-001</input_scale>
  <output_scale>
    5.2631578947368418e-001 4.9999999999999994e-001
    5.2631578947368418e-001 4.9999999999999994e-001
    5.2631578947368418e-001 4.9999999999999994e-001
    5.2631578947368418e-001 4.9999999999999994e-001
    5.2631578947368418e-001 4.9999999999999994e-001
    5.2631578947368418e-001 4.9999999999999994e-001
    5.2631578947368418e-001 4.9999999999999994e-001
    5.2631578947368418e-001 4.9999999999999994e-001
    5.2631578947368418e-001 4.9999999999999994e-001
    5.2631578947368418e-001 4.9999999999999994e-001</output_scale>
  <inv_output_scale>
    1.8999999999999999e+000 -9.4999999999999996e-001
    1.8999999999999999e+000 -9.4999999999999996e-001
    1.8999999999999999e+000 -9.4999999999999996e-001
    1.8999999999999999e+000 -9.4999999999999996e-001
    1.8999999999999999e+000 -9.4999999999999996e-001
    1.8999999999999999e+000 -9.4999999999999996e-001
    1.8999999999999999e+000 -9.4999999999999996e-001
    1.8999999999999999e+000 -9.4999999999999996e-001
    1.8999999999999999e+000 -9.4999999999999996e-001
    1.8999999999999999e+000 -9.4999999999999996e-001</inv_output_scale>
  <weights>
    <_>
      7.7140811971221454e-002 -1.1440504977131012e-002
      3.2639305798636671e-002 3.6750802782183505e-002
      -2.4206228028642578e-002 2.9713920928379208e-002
      6.6555748810303225e-002 -1.9101323679435355e-002
      7.8425553808450163e-004 -3.3213252669802254e-002
      3.1821706403145147e-002 -4.1820592366338331e-002
      1.0409469825340469e-002 -2.8701538504758824e-002
      -2.5864559421304376e-002 2.4856468310984190e-003
      2.7042640916445756e-002 -1.8088837126610819e-002
      -2.1415270170544360e-002 6.0002063850081539e-003
      5.5569004500391640e-003 -2.2621691682773001e-002
      4.2013908104306712e-002 -2.5977694766875035e-002
      -2.8098339412794927e-002 2.4483765149713545e-002
      -1.7856734415862774e-002 1.5854563045252873e-002
      -4.0392744884182805e-002 9.4224116837144274e-003
      -4.5465570775091266e-002 -2.2080995644646454e-003
      4.9753714335107148e-002 1.2103174353024951e-002
      3.3883746959148739e-002 4.0172588656158924e-003
      -2.6546042502933027e-002 -5.2343055423048436e-002
      -2.8042951885315050e-002 3.2950687277011042e-003
      2.8392125396118850e-002 2.8730917748661405e-002
      2.2079792762405022e-002 8.3290110473902886e-003
      -9.4518365922932127e-003 3.7287015663617855e-002
      -4.5461623261355086e-003 6.5712085054779807e-004
      2.6416543380058548e-002 -2.3767437927291316e-002
      9.3300853435861805e-003 -8.9919521288729862e-003
      -6.7178731354709488e-003 1.3764444197998646e-002
      4.6797334813899374e-002 3.6337379648251900e-002
      3.1471733788534474e-003 4.3980742001556813e-002
      -3.9403450122093689e-002 2.1545893481752648e-002
      1.2781674752328189e-002 4.4211375636923254e-002
      3.4827301231872193e-002 -9.6906875784235937e-003
      -4.0303138045012329e-002 2.6548861632605630e-003
      -4.2238010091746860e-002 -1.1244012909051618e-002
      -4.6554798815784754e-002 2.7134759913662328e-002
      1.9391552403458377e-002 -2.7058123572023064e-002
      -3.9053666154252709e-002 -7.7185905827026335e-002
      2.6117907105006961e-002 1.0120291980218882e-002
      3.9699719031850544e-002 -2.6884656854469585e-002
      1.5429596075570607e-002 -5.1086715768044917e-002
      -3.3992482025069333e-002 6.3542906172203220e-002
      -7.3352176664238933e-003 8.4122562345230883e-002
      -1.1501149649135668e-002 4.3335072566364714e-002
      -2.5108170051767485e-002 -7.5556893791458935e-003
      2.7308365123500260e-002 -4.9829013453119859e-002
      -2.4865046647438223e-004 -4.4702381267276593e-003
      -3.7115503339267076e-003 -4.1834088519244632e-002
      3.7913085599896333e-002 8.3715965074847374e-004
      4.8578262051265655e-002 6.5960315020415286e-002
      -9.8439695293037859e-003 1.4780119758389450e-002
      -2.5444597840063022e-002 -3.7083141185936712e-003
      -4.7053820478522759e-002 -3.2067948077786125e-003
      -2.8936527104300270e-002 3.5615346450616290e-003
      4.8868848816142514e-002 -3.3375116749467505e-002
      4.1675208104777053e-002 -2.4058946309023270e-002
      -4.1952312337905633e-002 -1.1004172340249922e-002
      3.9017409922969148e-002 -3.5013683172348070e-002
      9.1497217549275714e-003 -7.1767105091541730e-003
      2.8037549469320105e-002 -8.3462092161041730e-003
      5.1475152333801122e-002 2.3172561775705140e-002
      4.6982877086325665e-003 1.8489346418734613e-002
      -4.1156535872667405e-002 2.1513365164664608e-002
      2.4140250019988913e-003 3.0746211579843544e-002
      6.5659575093948144e-003 -2.7097423027165345e-002
      1.2039156381728866e-001 -3.2650386640816105e-003
      8.0622841289898467e-002 3.5294412510762770e-002
      -4.2664078303962349e-002 9.0417953186696363e-004
      2.5629788293379335e-002 -1.0261587290014515e-001
      -5.3270428065007765e-002 -5.3708748273273335e-002
      1.0288244725305901e-002 -4.5977759097414410e-002
      1.9731532717102637e-002 -2.4170529872448575e-002
      1.5064009651292336e-002 -2.6350537462918280e-002
      2.1171599504869992e-002 -3.5954912180121680e-002
      -6.4888300733265090e-003 7.8588347754679263e-003
      9.9041765538780621e-003 -3.8438909184706452e-002
      8.3902642539276220e-002 -1.2977591288866813e-002
      -4.5424356717096673e-002 -1.1442941120721393e-002
      -1.6451953934758141e-002 4.9362870526188339e-002
      8.4978309455262583e-004 -1.1496623270790369e-002
      -2.0769376851388421e-002 5.6814833435547163e-002
      7.1306120665742795e-002 -3.0652372584381485e-002
      4.7188166721753251e-002 -2.7889541412477962e-002
      -4.5949520789347643e-002 -7.0064870993708409e-002
      -2.5484656832656983e-002 1.9658378134793358e-002
      1.6282855995634490e-002 1.7270850925147900e-002
      4.7977183127008625e-002 4.8941336674681209e-003
      9.3316421860163978e-003 1.2408628767497609e-002
      -2.9550440409504782e-002 -6.2917210096390909e-003
      4.2525920745804323e-002 2.9183817714921213e-002
      2.5183400711313447e-002 2.3260408540834603e-003
      1.3929735478750904e-002 7.2675618655862377e-003
      6.5089082600097173e-002 3.7304228784885797e-002
      2.5098730388077358e-002 4.2816277053695846e-002
      -5.8072277574945923e-002 3.6498250495088612e-002
      1.0268452466920144e-002 2.8132001160600811e-002
      2.2381315637146196e-002 2.8863499827621137e-003
      -2.1461953753761771e-002 -2.9375838449463586e-002
      -5.0404837167707980e-002 5.0554282928800378e-003
      -3.3493099152206295e-002 5.3649379749748358e-002
      5.2593230111611482e-002 -6.9868356280234120e-002
      -1.6514928869698919e-002 -5.4918201132082803e-002
      6.7009597931200815e-002 2.2982095369081256e-002
      8.7448602633934905e-002 -2.0132446886158426e-002
      3.2616915629071430e-002 -7.5478982052041886e-003
      -3.9479383318042863e-002 7.8462257375074521e-002
      1.8161291121222622e-002 1.1011449883696262e-001
      -2.1976629983985183e-002 9.3658412164621493e-002
      -7.7624941852298610e-002 3.0232391049315288e-003
      2.9354262763174085e-002 -4.7812408489080083e-002
      8.0929655567428989e-003 -3.7856553205480398e-002
      -1.7933315328780512e-002 -2.2097501954286159e-002
      1.7541774607287001e-002 -2.8454766314747047e-002
      3.8564517301032317e-002 8.8661210862656298e-002
      1.5830809577501471e-002 -4.8804066053146165e-003
      4.0519226312451070e-002 -5.5994425337012370e-002
      -8.7808638150274732e-002 -3.3307796390503537e-003
      1.2275239129514903e-002 1.4489823436237646e-003
      7.8495629128482333e-002 -2.6422797378362672e-002
      6.5149836237158615e-002 1.3835608597661054e-002
      -1.0113496760892824e-003 -1.4082948398943401e-002
      1.3825539324953257e-002 -2.8749761597110807e-002
      1.8904569242539672e-002 -2.1414228585999204e-002
      3.3231522018251629e-002 2.9352902124471631e-002
      8.4468409300215971e-002 3.6599227677104787e-002
      1.1593711824613044e-002 4.2738390104851545e-002
      -4.8247619475526499e-002 -2.3944178222115271e-002
      3.5178252839697173e-002 3.7630235939748395e-002
      -2.1495619872151300e-002 -5.9769159391324751e-003
      7.0045925513721977e-002 9.9885268206902200e-003
      2.4470629008363460e-002 1.1901802274674245e-002
      -1.3092763465953072e-002 -1.4460237519893498e-003
      1.9574623157356499e-002 -4.2364694097705179e-002
      5.6343284888005687e-003 -2.8072697717953690e-002
      -5.3456798142035543e-003 -1.9688036758644845e-003
      -4.2346816480170165e-003 -1.5857916491097569e-002
      -6.2804031728450668e-003 -7.1671708411814323e-003
      3.6491269118430841e-002 -1.4987048772987491e-002
      3.3493895004743377e-003 3.8029082124301414e-003
      -2.4245474551398720e-003 -3.0082708279158109e-002
      8.8026882446305688e-003 1.0345208033063569e-003
      -1.2080839309513586e-002 1.4396403499558235e-003
      -9.9250343647394601e-003 6.3997963586536876e-003
      -2.7159477812971847e-002 -4.4934263163297419e-003
      -1.6614548552559932e-002 2.6591608669600749e-002
      6.6616126793051242e-003 7.5950311888955404e-004
      2.1842044097230177e-002 -9.5071773537915832e-003
      -1.6821248449631076e-002 -2.1332479078365198e-002
      -1.8025961602410007e-002 -8.2299744899497051e-003
      8.2592233536135185e-004 8.8557069572537490e-004
      -2.1460374757108530e-003 -6.1368817496467313e-003
      -1.2686792763256342e-002 2.1743988660807841e-002
      -1.5449558485056421e-002 1.3090383314107057e-003
      1.6343024514113066e-002 1.3221749069618604e-002
      -1.6893363475736097e-003 -2.2701124747693219e-002
      7.9245708609410274e-003 2.3372426705510600e-002
      1.9643035581239594e-002 2.3069881880066607e-002
      -2.9707249590060422e-003 3.2219275968847938e-002
      -2.7039358792838256e-002 3.0596781818936516e-002
      1.2122122579422837e-002 1.6160068811150813e-002
      1.4853035379192971e-002 2.6804362504370062e-003
      -2.4184192552359873e-002 -4.0996808185736139e-003
      -2.0167839178387357e-002 -1.2258960805438980e-002
      5.2121703553059803e-004 -1.0092692932265779e-002
      1.1514238508428790e-002 1.8297815002778571e-002
      -1.7482882239810500e-002 -2.8973693632863694e-002
      3.0356501398752019e-002 4.3077446768108291e-004
      2.9804649547155285e-002 -1.8336054970636780e-002
      1.5357354847120997e-002 -2.4877779750583636e-002
      -3.9948814931780964e-002 5.0825828892077506e-002
      -1.9567733697035985e-002 4.6863496490632033e-002
      -1.2026326649941257e-002 2.3743522249063106e-002
      -3.5109424205668212e-002 2.6332693859096643e-004
      4.0884588885904766e-002 -1.4115680309067689e-003
      1.3914932979518835e-002 -1.3039083722838324e-002
      8.9917339015912357e-003 -2.9653057890619075e-002
      -5.1691365420641110e-003 8.3191787094240473e-003
      2.8596236803417011e-002 3.8909121444467912e-002
      1.8184292727417624e-002 -7.6790614634524084e-003
      5.9707773287380975e-003 -2.7315192763288219e-002
      -2.8925487266104116e-003 -1.7727867910982738e-002
      -1.8214965139941839e-002 6.9219446408351915e-003
      1.0867779920237059e-002 -1.3179560899166849e-002
      1.8214721950150854e-002 1.6839360888556587e-002
      -5.0033956527299481e-003 -6.5517715858974222e-003
      1.4384989946430921e-002 2.9184773384960602e-003
      1.1142748841354405e-002 1.1603524200918562e-002
      2.1617386237051575e-002 -3.0673142120154514e-003
      2.8326160590036151e-002 8.3458117501244988e-003
      5.9028535756421906e-003 -2.5428948830271320e-002
      -1.0113430796708043e-002 1.3092982344891139e-003
      1.9781484147493492e-002 2.6686653919539245e-002
      1.7931944441218480e-002 5.1135972180803360e-003
      3.2086583002793857e-002 -1.6467828602022512e-002
      3.0891074695863923e-002 5.6537295109159421e-003
      1.8355114389193870e-002 -7.0539839454385076e-003
      2.4368852570693711e-002 4.0305389184598405e-003
      8.7417048354681264e-003 -3.1308637107318946e-002
      1.2213981397069033e-002 -2.8638398745723024e-002
      -3.8255877530396200e-002 1.0502731354993357e-002
      -2.9265457895985187e-002 -2.5179623132187263e-002
      2.7149411765792077e-002 2.1340842008257813e-002
      6.9696609919399416e-003 1.2266266282847453e-002
      -1.8961357976534192e-002 -2.8947978453478972e-002
      2.9961144211019110e-002 -3.1631812576501932e-002
      2.0028335132618608e-002 5.1156781274248074e-002
      3.0887553330580107e-002 -1.6716984942812766e-002
      -2.9857855982357368e-002 4.7725741528177341e-003
      -9.4597471355410846e-003 1.7889880355011486e-002
      -2.0637579341777675e-004 2.5971287313581018e-002
      -1.0336385594276000e-002 1.2821060932786935e-002
      -4.3800508452195706e-002 1.5818520953822485e-002
      2.1289801823417241e-002 3.6539102616805906e-003
      1.8458533189476101e-002 2.7411592552248478e-002
      -8.8766280095635610e-003 1.4999769686330409e-002
      -1.4094854272093824e-002 2.5190097397880730e-002
      1.7279788330958310e-002 -7.8293801529609412e-003
      -1.6838248100741829e-003 -3.6903522612617749e-002
      -2.8925282985889207e-002 -4.1095989244903673e-002
      -6.5740001018595286e-003 7.1422432288660862e-003
      -7.9495801837408207e-003 -8.6030689590201586e-003
      -2.5469978369177259e-002 2.5501272981900646e-002
      -2.4117314146221078e-002 4.4665193593025634e-002
      2.0736377442419952e-002 6.3235023934760156e-003
      4.7427793725137335e-002 -2.7273568822495056e-002
      -1.5201450296470145e-002 6.3812236421161286e-003
      4.7166568142942063e-003 -1.1315811131037549e-002
      -6.1841509166032843e-002 -3.2991234803225800e-002
      -1.9957253772234285e-002 6.1578675907300928e-002
      -2.6433011946011588e-002 -1.6801239609945440e-002
      -4.9032709205261886e-003 -2.4196648817827300e-002
      6.4983376812191920e-003 -1.7701032372676266e-003
      -8.6403319712070846e-003 -2.9652880101327453e-002
      -5.1562879771187398e-002 5.6587805781058154e-002
      -3.4852796753115013e-002 2.6374175066066975e-002
      -1.9363504002156768e-002 -2.9984806209574690e-002
      1.2819315319599184e-003 -8.3587609289132898e-003
      2.0489947293929126e-002 -3.0546355468000091e-002
      6.5547526284221594e-003 2.5885993871435448e-002
      2.6161062337655704e-002 -1.4265590780292560e-002
      2.6780473887152250e-002 2.4699119627769016e-002
      3.9427027095422194e-002 2.3685059260042027e-002
      -6.1927258699708224e-003 -4.1023619310843144e-003
      -1.8091995732944048e-003 9.2863809469068224e-003
      6.0955760763600812e-002 1.5663807175039731e-002
      -3.6892895740515880e-002 2.4864095831435704e-002
      4.5969589754336210e-003 -2.5641810380607807e-002
      1.6705300839620348e-002 -4.5784270581332748e-002
      -5.4869343882629922e-002 -2.1188435225429101e-002
      3.3092883725800153e-002 -3.0130516215803423e-002
      -3.3125513238854896e-002 8.9060484232338505e-003
      2.8985005793915268e-002 -7.3522058946360550e-003
      -9.6609510758570785e-003 1.5833985721108300e-002
      1.0518927597001383e-002 -3.5021316738373567e-002
      -1.2376616186038880e-002 3.0147241544894728e-002
      1.5147469944810692e-002 4.7977388857205275e-003
      4.4113235273693950e-002 -1.2966714134099304e-002
      -9.9771990468997662e-003 3.3961195263387123e-004
      6.2533560041431379e-003 -1.3589572421390700e-002
      2.7125935131360853e-002 8.3670350606394467e-003
      2.0844184809280707e-002 2.1237452844569328e-002
      1.8905905668947936e-002 -5.8862927045186314e-003
      1.1779346675234838e-003 -1.5435334448293243e-002
      -2.7548109565793871e-002 3.2438501165836663e-003
      -1.8330665660855817e-002 -4.3217862650016406e-003
      -6.0785553136914125e-003 1.3812607001973582e-002
      1.5447247357469060e-003 1.0348972525928693e-002
      -1.6467466151811445e-002 1.0632666523975105e-002
      2.4348618492244140e-002 -1.7463057896539087e-002
      1.1442921309387084e-002 2.1945954014109426e-002
      1.8468247327344748e-003 -2.9251413319748416e-002
      -1.9692027745004191e-002 -8.6173772029732188e-003
      2.1843181112744664e-003 -9.7423372085645894e-003
      -1.8627416585933140e-002 -7.1109963174640209e-003
      -1.2275362041651536e-002 2.3169627888902172e-002
      1.9718185766634511e-003 1.5292953634154626e-002
      1.8109775066842023e-002 -1.8010439611554949e-002
      1.1390710771412302e-002 1.3603712516126468e-002
      -2.3843604881928944e-002 4.7273959367462683e-002
      -1.2321332898745615e-002 5.2049021146507663e-003
      2.6406527428436844e-002 1.1135766184470831e-002
      -5.4002218832714327e-003 -4.6506621291842520e-002
      -3.0095745614253954e-003 -1.6927454161094351e-002
      3.5222616744904479e-003 -2.2397840785172421e-003
      -3.4411459591191247e-002 5.4640964110238719e-003
      -3.0353230346406419e-002 -1.2966213326473786e-002
      1.1124300465713234e-002 8.2478053678924565e-003
      3.4946675672592247e-003 8.2094041745692653e-003
      1.0732211524316275e-002 -1.3107273052512258e-002
      2.7244095969911532e-003 1.0239460017245027e-002
      1.2417104782312879e-002 -4.8725178409973983e-003
      -4.0006697896569604e-002 -2.0563454591348000e-002
      -2.1811916215713538e-002 5.0846135827179804e-002
      -2.5700549799115149e-002 -4.8416072117108671e-003
      -1.9265833380788720e-002 -1.8103949565122679e-002
      -2.2696501476316390e-002 -1.8185900566561258e-002
      -2.7873073968244212e-002 1.3396162957204324e-003
      -2.1806593131737498e-002 4.1485063331188525e-003
      -1.4339574415159392e-002 -3.0562305413705394e-002
      1.3284148003702149e-002 -2.4426940751704703e-002
      -7.2471461121531421e-003 -1.3664931991390159e-002
      1.4831309762198031e-002 -5.3668214816995699e-003
      1.2759320857804896e-002 5.5989437462685915e-003
      1.8675743655493793e-002 4.9204188319062541e-003
      9.2297307377319816e-003 4.0863941369091147e-002
      3.3211180427933244e-002 9.4323599586024869e-003
      -2.5202494138385600e-002 -1.2995195600017127e-002
      -5.1914590088393606e-005 1.5734464054182819e-003
      3.5704008321967094e-002 6.1456846072547519e-003
      -1.9701201205599244e-002 1.0744959149300820e-002
      -4.4244432910725690e-003 -1.6819506838965836e-002
      -1.2336171419934315e-002 -2.3919898960289870e-002
      -1.4893295288609245e-002 -3.6356339509113155e-003
      2.8061014921926426e-002 -5.5073842775104128e-003
      -6.4452183830117447e-003 -2.6746100875184716e-003
      5.9236443637138278e-003 -2.7949738752861952e-002
      -3.9718889037533830e-002 -2.3962334936841159e-002
      2.1281063712983540e-002 -1.9489104839509806e-002
      -2.3482053909664284e-003 1.7522900127317307e-002
      -1.4032193515219220e-002 -8.0185720002450365e-003
      9.4028428948309106e-003 -9.3622849212890141e-003
      5.4860305278755662e-002 -9.8942541520551566e-003
      -1.6636500377712679e-003 3.1692562389213801e-002
      -7.9891325429135782e-003 2.0970868095967415e-002
      2.3234236160801440e-002 2.9684270660671291e-002
      -3.7764319462468152e-002 4.1973315104993757e-003
      -2.0206058850037751e-002 -6.4860588963890995e-003
      2.6710599889118874e-002 -3.3467572810246413e-002
      -7.2653990826453088e-002 8.4717912621734420e-003
      -6.3427603215657543e-003 -3.1599178727654498e-002
      -2.0177632999223271e-002 1.0727217568703389e-002
      -7.3712895130242330e-003 1.3895406034652343e-002
      4.8253460104937022e-002 -1.4826205136926887e-002
      -2.5571664028223254e-002 6.2225666128111670e-003
      7.5343516175673565e-003 -1.7000581998951388e-002
      2.9472198468030795e-003 -2.0528866436033071e-002
      -4.0026605478756201e-002 -3.5014635701767841e-002
      2.2853199151383918e-004 -3.3390790905201955e-003
      -1.7067676284911574e-002 1.7379191220393532e-002
      3.4014700224412699e-002 -1.3046475398825585e-002
      -4.1942773964038449e-002 -4.0952512876556192e-002
      -2.6164903622155752e-003 -6.4025805416368367e-003
      -2.1691268761726436e-005 1.7930363350709429e-004
      -1.6340791059336578e-002 1.0363129516357612e-002
      -4.4043580305245834e-003 -5.4849865629640997e-003
      -2.0725185013993298e-003 -1.7716495834236123e-002
      2.1829064129645928e-002 1.5841013922905690e-002
      6.7891487310995733e-003 -9.6386321899558682e-003
      2.3894910098889801e-002 1.3104675344892874e-002
      1.3287821432454163e-002 -1.3176566401137822e-002
      1.6493923287795886e-003 -8.0469064540792286e-003
      -1.7593805148553305e-003 1.7469526258465626e-002
      -3.6584446760000430e-002 1.9828371195596457e-002
      -4.1690183057545217e-002 2.9987776858514227e-003
      -3.2680474489121605e-002 1.9768029404430142e-002
      5.8050735786991685e-003 2.4592970905602664e-002
      -1.1044538920967240e-002 -2.9880504295411489e-002
      -2.1057175201205591e-002 -2.8689429010267317e-002
      1.1247711230907793e-002 5.5729873658714223e-003
      1.5304874213826701e-002 -7.5832326337522040e-003
      7.1414682744041606e-003 -1.6769123555083944e-002
      -5.2689063286706847e-003 -9.0134977606186346e-003
      2.2599742100091282e-002 1.0331116407901790e-002
      -4.4020345576813230e-003 1.8879073563944949e-002
      -4.4469467567500448e-002 -5.6683460972609175e-003
      -1.6248685304820470e-002 1.6223310966493144e-002
      3.0627820647176679e-003 1.6700113512755081e-002
      7.8187557117708542e-003 -2.9886450357865132e-002
      6.4434279439058995e-003 3.7265181429549085e-002
      -3.3610017427775911e-002 5.0342040362629566e-004
      -1.6862253694495670e-002 -3.7877909343946455e-003
      -1.9466388286510410e-002 -6.0977977830178713e-003
      -3.0666471214194118e-002 -3.0110500078850164e-002
      -1.5859920177002981e-002 3.8158841075884046e-003
      1.4539562564310894e-002 -3.8941431746876715e-003
      -2.8175262799725483e-002 -1.0982628319154135e-002
      3.5882003188977001e-003 2.6902033011626421e-002
      -1.0230490580779126e-002 -1.8603819615803735e-002
      1.2554668557523331e-002 -1.8317449849472103e-002
      -1.5722480473449804e-002 -9.5174415032018549e-003
      1.4133248760971670e-002 4.9177961139650242e-002
      1.5012308041891383e-002 -6.3343762263909746e-003
      1.6354225113639390e-002 -5.3711833220663691e-003
      -1.2570286219031303e-002 4.4144656439312251e-002
      1.3037689040563089e-002 1.8292800921096879e-003
      -3.0897033136366499e-002 3.5639729903751563e-003
      2.2439105010143633e-002 3.8939161380642864e-003
      -4.0546245148300700e-002 -1.6107079954318631e-002
      1.6913894121995381e-002 -8.4089130990783009e-002
      -1.5881220264249953e-002 -1.1431205762149801e-002
      -5.1625182188794428e-003 -1.4386032559541878e-002
      3.4981757237364866e-002 -4.9088676773706499e-002
      -3.5267820265547881e-002 1.0523585179920063e-002
      -1.6647744655081773e-003 -5.4897238637641822e-002
      -3.8358984114854722e-002 -9.7349133201362868e-003
      2.4452605673468001e-003 2.5906782078865140e-002
      3.4579652386702041e-002 -3.1602751845864713e-003
      -6.2739196388672425e-002 -4.4249497745146270e-002
      -3.2287363960085219e-002 4.6459958301201067e-002
      1.4174581950942585e-002 -9.6227032049016458e-003
      -3.3242480322163828e-002 1.2239707782145579e-003
      3.4535190200468663e-002 -2.3123229013877478e-002
      3.2444466321823247e-002 -3.1899944556655423e-002
      -7.2167212764679585e-003 -5.7910707041702605e-002
      -5.9773670677523920e-002 1.7141353396856482e-003
      5.1876387375485999e-003 7.4651325369541979e-004
      6.5692722699716447e-002 -1.0958164806727377e-002
      2.3144429606249864e-002 -2.6727831000278441e-002
      -3.3636567500969654e-002 5.1280658320465777e-003
      -6.0582262648512415e-003 2.8901717156894640e-002
      3.9565819191757327e-002 4.0882794853210370e-002
      5.4388439744842618e-004 2.1381566263384928e-003
      7.6065150089509800e-002 3.6011456648839264e-002
      1.3162136135218086e-002 -2.1058599750835546e-003
      -4.7706305576175967e-003 -1.4147057065761004e-002
      -5.9233911738138479e-003 3.4485182544361094e-002
      -3.4791659572493631e-002 4.8079502515956614e-002
      -4.0594268177433515e-002 -2.3340981036884666e-002
      -5.9256582281014644e-002 7.6988548147583439e-003
      1.8555440993258544e-002 6.0462956069233902e-002
      4.4995430951329074e-002 -9.9559866830783286e-002
      9.0216181504381657e-003 -4.3161866519428341e-002
      3.6580627790967948e-002 3.2558249096251671e-002
      3.2198794038772426e-002 1.3795150053377595e-002
      9.4847362259315535e-003 4.7843924033865544e-003
      1.0506849848905509e-002 2.8048707979913007e-002
      4.1007357383798647e-002 5.3652219095667510e-002
      -1.2238994737258532e-002 6.5804937414086731e-002
      -3.4034599384547379e-002 2.8779345032751796e-002
      7.4114064664127812e-004 -1.2458377330696473e-002
      -4.3689260896424241e-003 -3.1267251724975569e-002
      -3.5873027695135069e-002 -6.3969024509675492e-003
      1.8806195878202110e-002 -3.9260501171521682e-002
      -2.4355648629565962e-002 3.3016178851347049e-002
      2.9113214140298470e-003 1.9161536137223979e-002
      2.5770083286376613e-002 -4.9362880886173383e-002
      -1.0526846096513609e-001 1.8729461554161146e-003
      8.2065014481657629e-003 -8.5409938911421707e-003
      4.3946851887871397e-002 -2.2746534896257134e-003
      3.5212851348463185e-002 1.3200778226296329e-002
      2.2508837233622184e-002 -1.2206148344368853e-002
      5.3818462603166103e-003 -1.1744914793564416e-002
      1.3444374791411315e-002 -6.1246389031137938e-003
      9.3988145601039269e-003 1.1436369189014091e-002
      6.4825713434859517e-002 5.3243647350232216e-002
      -3.5756104063166343e-003 5.9027471675752279e-002
      -3.6716658946691384e-002 -1.1907970166494794e-002
      3.1360531969474594e-003 2.1686199333066442e-002
      -3.7371183613764333e-002 2.4059563058605883e-002
      2.6010769496457115e-002 3.3942618138686322e-003
      8.5698689821469970e-003 7.4291568622653105e-003
      -2.1235035205170533e-002 1.1548793827564754e-002
      -2.1506474741265484e-002 -7.8320594492067592e-003
      -1.1697995679713569e-002 -7.6046700099585305e-003
      -6.9262309211610496e-003 -9.7227232613252121e-004
      2.3804041846764528e-002 -3.0525734188175457e-002
      -2.5176340270193977e-002 -4.0294116820342712e-003
      -2.4155303383386426e-002 -1.5327381750041827e-002
      -3.8262636044094204e-003 -1.5100133298415015e-002
      1.7315845736422496e-002 1.2793636637892737e-002
      5.8671204966314373e-003 2.4326532991866469e-002
      -2.7042707286347889e-002 -2.1412956510279073e-002
      -1.3116466686663292e-002 5.1195902828053585e-002
      8.4344794812838842e-003 1.2177320194453636e-002
      -2.0131912736375993e-002 1.1293120849042932e-002
      5.1688018634159303e-004 -4.3053505112118154e-003
      4.4766416765727925e-003 -3.3967353649073134e-002
      2.9298235963306957e-002 -2.1743579982382858e-002
      -4.4798227725483038e-002 1.6040421536401398e-002
      -3.7978051286028984e-002 -2.0655405287356810e-002
      1.8612387736522781e-002 -4.8690898971817616e-002
      2.0236053720905929e-002 8.1606928852584922e-003
      -2.7782053153409324e-002 -9.2519958251749152e-003
      1.0250687147135133e-003 3.2000031508159388e-002
      2.7205511372770080e-002 -5.0383267833432306e-003
      8.4996126944210122e-003 8.6251725271211093e-003
      -2.5480071211622219e-003 2.2600543395207253e-002
      1.8838981707515291e-002 -2.3597990351342762e-003
      1.3472153577718268e-002 -1.7560480251351675e-002
      -7.2687711897883433e-003 -2.3755683991012449e-002
      -1.5954224963100699e-002 1.8624886711513064e-002
      -1.7392874702991831e-002 1.5779000952381144e-002
      -1.3750256741779923e-002 7.8614226916667914e-003
      3.9146637198459081e-002 8.3076674492914230e-003
      2.2972838958656139e-002 -5.1737087718754189e-002
      5.5223671681880896e-003 1.0607618298066293e-002
      3.4837586220837942e-003 3.7407179808163459e-002
      7.1224844265376074e-003 3.2933885316168074e-003
      3.1216419781426832e-002 -1.8060480669753517e-002
      -3.2166790928468054e-003 -7.3637930301363782e-003
      2.6752024078965729e-002 1.2371606725302799e-002
      -1.1559325380811574e-002 2.0850104330489970e-002
      4.5597796268619060e-003 2.1717513208023773e-002
      3.5600019261308341e-003 8.7334388167732598e-003
      4.8582396358844973e-003 -2.1732054372011218e-002
      -1.7708682395287334e-002 -1.6425971064689803e-002
      -5.9675951613796284e-003 -1.4249603187241566e-002
      -3.7418835597802104e-002 1.7960198047662346e-002
      4.1880045551120217e-002 2.0932101900695232e-002
      1.2904281249480801e-002 -8.7801176886643049e-003
      -2.8235317979998769e-002 -9.3243000703913097e-003
      4.3240484820363835e-002 7.5875032841562660e-003
      9.2923127936370628e-003 8.0228829416606577e-003
      1.8645768950205931e-002 2.9287724445733763e-002
      2.5967982814449290e-002 2.3902896670842076e-002
      -3.9016267918644675e-002 8.3396561196596147e-003
      2.9325779814382308e-002 -6.4430929370568922e-003
      5.9490344337421650e-004 1.3979382015764746e-002
      1.8611051528888416e-002 7.1025199840945557e-003
      1.3509823432688840e-002 9.9213804942138197e-003
      1.3956932614390004e-002 -2.8792316949602315e-002
      -6.1693047838104226e-004 8.0197167618928228e-003
      -5.0817268423633934e-003 4.3362321749303476e-002
      1.5488941993302957e-001 -2.5469987666071163e-003
      3.9086457086246591e-002 2.4903434841277234e-002
      -1.1250639850192583e-002 3.4173119762759933e-002
      1.7828939739673578e-002 -2.5703112562794648e-002
      8.3854863589804835e-003 -2.9061628471580468e-002
      9.1822803438158709e-003 -2.1615983613593716e-002
      1.1271065600516085e-002 -4.5731548826532895e-002
      -2.1531471762889019e-002 -4.2549421589610946e-003
      3.5205228068806931e-002 -3.2655715953790722e-002
      -8.2986770224478725e-003 -4.8867561522907884e-003
      1.1996349627634688e-003 -3.9285244807679101e-002
      2.3234389145360825e-002 -2.9023157057479470e-002
      -2.0950411572926080e-002 3.0135927998191887e-002
      -1.2875849434391840e-003 3.9082361541836690e-002
      -1.2608098548740393e-002 3.4006539240157003e-003
      -5.6431678636810353e-002 1.3017297686157450e-003
      2.7815159791515533e-002 4.5217437313812255e-003
      2.9965191739146343e-002 2.9043713593296929e-003
      -2.7729962203331494e-002 -4.9918376099381212e-002
      -2.0343141607896489e-002 -1.1695773182566213e-003
      1.9497345607395213e-002 -1.0904816106057430e-003
      -8.4620634190921504e-003 -1.2948931113229268e-002
      -1.8151421611814187e-002 4.7118758096883838e-002
      -2.8650880659717604e-002 1.5624273162804028e-003
      2.2943451653667166e-002 -3.2857191865728794e-003
      1.1989408075816964e-002 -3.6240924432001977e-002
      9.9954357741251203e-003 2.8240280342252430e-003
      1.0038360149757052e-002 2.4702646575067815e-002
      1.6584692610565083e-002 2.9750104056220559e-002
      -4.5832163153163644e-002 2.4078397888541693e-002
      1.2194553776889007e-002 1.6699276178882717e-002
      1.4829095115703586e-002 6.3933379816540946e-003
      -2.3728517853916841e-002 -7.7114076660944860e-003
      -4.1493380660975347e-002 6.7212661414173236e-004
      -2.1023499115188922e-002 1.8129945780342754e-002
      2.7802901975179357e-004 -3.0053444677248700e-002
      3.2904850821667232e-003 -4.0115854760795579e-002
      3.8052088895765925e-002 1.4070653276868676e-002
      4.2533323500318763e-002 -1.6991419233243907e-002
      4.1416173058411943e-002 -5.5676729109658277e-002
      -6.2202089400463199e-002 3.8500775273650173e-002
      4.3167732665770110e-004 4.5002386563308232e-002
      -2.6514257006131237e-002 1.3025272577789663e-002
      -2.3081706534627329e-002 -1.0140383373080892e-002
      2.6682972348921613e-002 -1.1763738513636976e-002
      -2.0320249659520846e-002 -4.6752793869803784e-003
      -1.0104425031264030e-002 -3.3884487514949074e-002
      1.8014540581316563e-002 8.8052932265596726e-003
      2.6465484492293367e-002 3.8916088952797183e-002
      1.3203234481809652e-002 -1.5457631123048573e-002
      -6.2253664527331734e-003 6.1315477507726370e-003
      -2.8336428506128636e-002 -3.0864026145807810e-002
      -1.5890748061390517e-002 2.0617001971814364e-002
      3.6460218406972743e-002 5.9936814321706463e-003
      2.9881305442319140e-002 -1.4321255957369295e-002
      -2.4037641397343816e-002 1.5731488301240798e-002
      9.4396907609594367e-003 -2.8516388736538070e-002
      7.6754225806135029e-003 -1.8891858404797946e-002
      2.3663633729766594e-002 3.1269735558882530e-002
      4.5307941399474722e-002 2.9030361905978873e-002
      3.1964595626590840e-002 -1.0241647328964853e-002
      -3.3930347027853552e-002 1.5393259774247221e-002
      -3.3878596717444600e-003 2.2022912971535944e-002
      2.2575814048307649e-002 -9.2898992829017826e-003
      1.5222132458974399e-001 1.9604866141223594e-002
      6.1265202850599630e-002 2.9083345102110771e-002
      -3.0216170152570328e-002 1.4213410479371339e-002
      1.9743768768723635e-002 -4.7193591945333770e-002
      -2.3537752356051595e-004 -4.1021844869724065e-002
      -2.2743137630819900e-003 -7.6479998102598574e-003
      -6.2394084751576137e-004 -5.8807015052991709e-003
      -2.0069109841128678e-003 -1.8053613915295207e-002
      3.2983635102376958e-002 -1.0054343175598973e-002
      -1.8244788452346523e-002 1.6632992801685412e-002
      -1.0877158493460142e-002 -5.7121525241634045e-002
      2.4403086897072830e-002 -1.9087997422993275e-002
      -3.3191151516139952e-002 3.5285655283889832e-003
      -4.7823102293527561e-003 1.9187779810704991e-002
      -3.6982675949328532e-002 -2.0873041950742948e-002
      -3.1205410441433757e-002 3.6343496057869705e-002
      3.0392931117222553e-002 -1.4025742597357470e-002
      1.7279276419068911e-002 -1.8315887255490250e-002
      -3.0724725427557657e-002 -4.8747294336716332e-002
      -2.7930317719213182e-002 1.1243565706486040e-002
      1.4507727966348942e-002 2.0270589780279562e-002
      3.2768154948728451e-002 -5.8303610183198457e-004
      -1.7812350120761558e-002 1.7670802514872252e-002
      1.4880716823866028e-003 5.0095236253063103e-003
      2.6473630971116397e-002 6.1150481446998082e-003
      7.0109681737447948e-003 -2.6380993031539124e-002
      2.0310136896161103e-002 1.8547479664562730e-002
      2.9882425945824374e-002 2.1166143936688989e-002
      -4.2367462863072101e-003 1.8703976825122318e-002
      -4.9488321964416215e-002 3.7571699177076062e-002
      7.6965990402603681e-003 2.1632648214576890e-003
      4.6441336353436447e-002 -1.1052937962483120e-002
      -3.1184987459755474e-002 -1.7765527444043583e-002
      -3.9781297341288963e-002 5.9762125509460612e-003
      -1.9062950635290610e-002 2.6404738881720326e-002
      1.4423823069612143e-002 -1.0923154131099474e-002
      -4.3325545955442803e-003 -2.5165129500217761e-002
      4.2043384809934234e-002 -5.8415705393413597e-003
      5.7112333412050756e-002 -2.0227881610474056e-002
      2.7558035707018150e-002 -1.4597128667958750e-002
      -3.4145303246185102e-002 6.9946551024031384e-002
      8.5809376201278764e-003 6.3324051534681083e-002
      -2.8660060598235469e-002 4.1793025819021619e-002
      -4.6611331943968264e-002 1.1139307147263361e-002
      2.6975579723535658e-002 -1.9295645640944693e-002
      8.5434244866583182e-004 1.3306209653496203e-002
      9.1129540160483410e-003 -3.1896826941495579e-002
      -2.5285328403686367e-003 -3.0547518518766116e-002
      3.4356326880891984e-002 5.6826588809959666e-002
      5.9463474761785673e-003 4.6007917722040402e-003
      1.5351051811626370e-002 -4.4102860465983336e-002
      -2.8895125598711689e-002 -2.0594301165197969e-002
      -8.0681504403888656e-003 3.3991894126736907e-002
      4.3367967981432221e-002 -2.0552111110817152e-002
      5.3885395746501884e-002 8.4454796463274712e-003
      -1.7519741842481625e-002 -1.0629751657702554e-002
      -5.5431814709531475e-003 -7.5337371034958555e-003
      1.5268344475549723e-002 -5.5629529319479814e-004
      4.7980600662211881e-002 2.7800446265156382e-002
      5.0258965581141499e-002 2.6590619333042062e-002
      6.3392270400053075e-003 1.2252461302645974e-003
      -2.4999336816634399e-002 -8.9454814740533867e-003
      9.0948813121667811e-003 4.4122731132261089e-002
      1.2660788106452062e-002 5.0663159419163505e-003
      2.1793834381992475e-001 4.0099316104918847e-002
      9.5665156896341932e-002 3.5291919327969178e-002
      -5.2869363574410662e-003 2.8220015742118923e-002
      -1.2591908200008139e-002 -5.8133218637486467e-002
      -5.4891421883626605e-002 -4.2155574797966028e-002
      -3.6881459903939959e-003 -3.2761713378999184e-002
      -2.6943159139864187e-002 -1.0930691437552875e-002
      2.1579357726377260e-004 -7.2195449677305554e-002
      5.6541388752573675e-002 -8.4482329511046238e-003
      5.7122985739663287e-003 8.7646342787068669e-003
      2.5859538246323342e-002 -9.8087154579152472e-002
      9.5848317539043673e-002 -3.0872191720044313e-002
      -7.7904559772991426e-003 6.1506406869292415e-003
      2.6803677222842895e-002 3.2363735240775175e-002
      -1.5211810435813872e-002 -1.4004319197393795e-002
      -2.6879322478524864e-003 9.3853315881122445e-002
      2.4961092837032482e-002 5.3090302325146752e-003
      2.4554678947326190e-002 -5.6744932103407718e-003
      -2.7789846347153382e-002 -1.4155658156752782e-002
      4.7176024958624766e-004 1.4498895765935898e-002
      -1.9629781566683019e-002 5.5729382127692566e-003
      8.5142790696844314e-003 8.2954654340904807e-003
      -1.9429987481807388e-002 3.3994453182116247e-002
      -2.7333821302245421e-002 1.0355363664642325e-002
      6.0759890422248421e-002 -2.2425048930973274e-002
      -3.7603675180708250e-002 -4.5563887313762194e-002
      3.9342328586580412e-002 3.8461857399847130e-002
      1.3384570425063531e-002 7.4380529424000431e-003
      -1.7046291020630478e-002 1.2771793556110630e-002
      -7.5108470085456916e-002 2.4862198423798602e-002
      2.2795121962295439e-002 -1.5227936686415915e-004
      4.8325834346857187e-002 -6.9640004177518977e-002
      -3.6630290291686976e-002 -1.7829419821475418e-002
      -2.6352741873222330e-002 1.6983427777168894e-002
      5.0509608401881267e-003 -4.5455840540077334e-002
      3.3838951280517886e-002 2.4229106750012011e-002
      -2.3352455260943032e-002 -3.8806733491680449e-002
      4.0649366011645198e-002 -7.6828652850133876e-003
      8.1418382956154486e-002 -2.0955035660363646e-002
      5.8317555762689426e-002 -3.2057364992915803e-002
      -7.5509307303872564e-002 4.9186672472032802e-002
      -3.3198505230188038e-002 8.6859000477139084e-002
      -9.4238988115393017e-005 1.0736698209605619e-002
      -7.6754974169088427e-002 -1.3079283353431632e-002
      3.7351661955847826e-002 -2.3916670466877909e-002
      1.0456419650173891e-003 1.9884774257572830e-004
      2.8615361637426447e-002 -3.4321345135352649e-002
      -4.1808589082935801e-003 9.6343591590630719e-004
      4.8720574056668513e-002 8.0025833090809420e-002
      4.2036178591282489e-002 1.0127773822647368e-002
      4.8019574098621856e-002 -3.9361035182763661e-002
      6.0854750706198994e-002 -2.4592913857308146e-002
      4.4577291997413494e-004 7.5177105043840176e-002
      1.9981614924472386e-002 -7.6842387562632182e-003
      4.4071554976585756e-002 2.6637718604238764e-002
      2.7972386127762699e-003 2.5719680502729787e-004
      -4.3569699320313857e-003 8.7388984019021194e-003
      3.4928020417917406e-002 -3.7274487887596679e-004
      4.1403130836108276e-002 9.7001968082003100e-003
      4.2499271005483466e-002 1.9111033540385809e-002
      -6.4281950927535126e-003 -2.4279965453348987e-002
      4.9217771096041205e-003 -3.7047574396952575e-002
      6.3763588771000163e-002 2.3779034652240811e-002
      2.7124444937403239e-002 -5.9683219574037322e-003
      -1.0856193399986778e-003 -1.0311265575942094e-002
      3.7697126008839489e-002 8.6309234051182744e-003
      1.3651012292404986e-002 -2.7995938252924166e-004
      1.8253036218988231e-002 -4.0131492628690715e-002
      -2.4578688202402044e-002 -1.7193945154155579e-002
      -1.5505370181447809e-002 -1.9799744317424418e-002
      -1.1295690403938453e-002 1.8226167480645934e-002
      -1.8972708558064523e-002 -1.7133339129506667e-002
      1.7721868768737846e-002 -6.7927026463277130e-003
      1.4429308062406509e-002 9.0653044589523932e-003
      2.4819095095737678e-002 -7.2700113010712606e-003
      6.9795862837790934e-002 -1.5129367193449197e-002
      -3.0327159961214815e-002 -1.8376840021878213e-002
      -1.6283705036754661e-002 1.9868682122918317e-002
      -1.1209394597135960e-002 -1.0542744706070865e-002
      4.6117153277095068e-003 3.9441809581413141e-002
      3.2918728222616302e-002 -7.3689119042400905e-003
      2.6275143862134899e-002 -2.8009507799006998e-004
      -2.1604798674321697e-002 -1.8306045154361933e-002
      -1.6732939419858257e-003 1.7424947143366194e-002
      1.4815774673037917e-002 -6.7117616169231125e-003
      6.3967129370904388e-003 1.0712720243876466e-002
      -1.1709776726164163e-002 -1.1457147938814459e-002
      -9.4997629609074128e-003 1.0125860248069525e-002
      8.1596305688288618e-003 2.6571044223472561e-003
      1.6513465446077794e-003 1.9952178408944392e-003
      2.2604770437408675e-002 5.1239789557467807e-003
      2.4938883077552085e-002 -1.8397351049606416e-003
      3.2140707367269306e-003 8.2948520255477481e-003
      -8.8539881117086598e-003 8.0642162125160524e-003
      2.0251605918293166e-002 1.3109701359010358e-002
      3.2443774553201549e-002 -2.1218231243005103e-002
      -3.0715160178697510e-002 -9.3768493375652583e-003
      -7.3225533638261496e-003 3.4457141009142790e-003
      -4.0522949730202505e-002 -1.9686237779648775e-002
      1.8837606850051355e-002 2.9837871507926153e-003
      -3.3239819083977787e-002 -1.4450553681563722e-002
      1.8888219158483328e-002 -1.7126646449053949e-002
      3.4272493213870853e-002 9.6204273014359378e-003
      -7.1225835611336968e-003 -5.5241790246534118e-003
      -8.1223606938270760e-003 4.1656381761828697e-002
      6.4161032943747288e-003 3.8767968113875367e-002
      1.3868404179008278e-002 3.5876284928514190e-002
      -4.1987040721361737e-002 9.8897390598722129e-003
      -5.8843588904165540e-004 -3.3685579303831481e-002
      3.3370299254666454e-002 -1.3345499628398320e-002
      1.0906928807685642e-002 -3.7596477302954934e-004
      2.6503819758526858e-003 -1.6719904994864143e-002
      9.6071219880592539e-003 4.5753974376611994e-002
      5.7682420283406933e-003 -1.0773873506160065e-002
      4.6059668115325941e-002 -3.5924175714174646e-002
      1.4417871747875691e-002 -5.3205028061692645e-003
      -5.6761825826347201e-003 2.7895349580005249e-002
      2.2067779013185133e-002 -1.6580804994460931e-002
      2.8273483892546112e-002 1.5548635721832994e-002
      4.5073321143834118e-003 -1.3503581598722345e-002
      2.3463350408581676e-002 1.1205287721715033e-002
      2.5086008358429893e-002 -2.3956170095278836e-002
      2.7794635203455113e-003 -7.2525692169931218e-003
      1.9531559240699426e-002 3.9861419802038188e-002
      3.1124429783240281e-003 -8.6048185619419671e-003
      5.1995143871462338e-004 -1.7535587059792329e-002
      3.3238406830350384e-002 1.8514325353576798e-002
      -2.7305761667915022e-003 -1.3489565868252271e-002
      -2.3606984034636144e-001 -2.0400204563448012e-002
      -4.3851684353842763e-002 -2.9259698571657965e-002
      7.2104580027368085e-003 -1.1602641927509006e-002
      5.9833834182160636e-002 4.8895624965518233e-002
      -2.2828503318695738e-003 3.8915272364418657e-003
      -1.0564439563853029e-002 -1.5492451543653531e-002
      2.9517410588021566e-002 4.0228277110700318e-004
      -8.0457938752025848e-003 4.9293170291813446e-002
      -4.7287655478661476e-002 1.6235498872814048e-002
      -1.1020900532031412e-002 2.8213724159698198e-002
      -2.4256826030779836e-002 8.2350603199056835e-002
      1.1526002534068472e-002 2.8165259765297348e-002
      -1.0336791747624365e-002 -6.8545114279158640e-003
      -4.3708288341209886e-003 -5.7533297460363557e-002
      5.3497663807250250e-003 -2.2379092034745210e-002
      -2.2170465044468696e-002 -6.9481355812962400e-002
      -2.4956809773242324e-002 -2.7939153435780646e-002
      -3.2843898915405990e-002 2.2106845848055542e-002
      1.8732350684842580e-002 4.2570847881021855e-003
      6.8101172846421606e-003 -5.1023686990262399e-002
      -1.7612256062513952e-003 3.6324289893450878e-002
      2.4677585667510138e-003 5.0084654135813811e-002
      -2.1031296933401486e-002 -2.0105753361778840e-002
      2.4913863132965296e-002 -1.0946338369260383e-002
      -2.3349991445321044e-002 -2.2053933476787933e-002
      -9.8715665763853214e-003 2.4534678573207062e-002
      -1.9349335898546074e-003 -3.5606490062968843e-002
      -3.8637356001223078e-003 -1.8802458184626367e-002
      -1.7158735741239699e-002 -1.1401078835151927e-002
      5.4690806603994967e-002 -2.3239326685272371e-002
      -6.2172362893156757e-003 5.5219914687448968e-002
      -3.6372736801244698e-002 3.5212833074055885e-002
      -1.5535252197459964e-002 1.3999787207053134e-003
      6.3939661585497576e-003 1.8153936204267529e-002
      -2.6504632654825718e-002 4.1396948642282556e-002
      -3.0267864228463063e-002 -1.3817328553155241e-002
      -2.9827739285156446e-002 -1.2350454691433204e-002
      -1.2449988201372707e-002 -1.0451327797456327e-002
      -2.9732462915378247e-002 9.5401136512774168e-003
      -7.0922466559791467e-002 2.0002204059947605e-002
      5.3760916089661680e-002 -9.4454522163201146e-003
      2.3168862422290235e-003 -5.4497259278812597e-002
      1.7781429841103018e-002 -2.8121125811545640e-003
      -4.7770190498672774e-003 2.5388525970003527e-002
      -4.5338258845872469e-002 -9.5647821971349637e-003
      2.2616303853170823e-002 -1.6039641437655724e-002
      -1.6501095314334732e-002 8.5073033650371575e-003
      3.8573903298084841e-002 3.9948397872727692e-002
      -3.1056996311727411e-002 -2.7259919277769936e-002
      -5.9102324883613944e-002 -2.6257642684627509e-002
      -2.5905803637611608e-003 7.0443884315521052e-003
      -2.7140672679369524e-002 3.4876089569554514e-002
      -5.1224764163957270e-002 -3.3136950875387566e-002
      4.8729028710205674e-003 -3.0427646582684244e-002
      -3.9578515489288348e-002 -4.5703403349308606e-002
      -5.1759344768676600e-003 2.1140306540675422e-002
      6.3793231497636244e-002 -5.5012518743275680e-002
      -5.1425522305346798e-002 -2.5647786745834244e-002
      -3.5956604383842595e-003 -3.5448692244855612e-002
      -5.1085852627303509e-002 9.5126684074054411e-003
      2.0077393923981914e-002 2.4305879831150186e-002
      -8.0240671079610786e-003 4.0032428705228551e-002
      -3.1035075716028815e-002 -1.8091929338198059e-002
      -1.0157660807902997e-002 -1.8214047690935500e-002
      4.9251504913848228e-002 -9.9073499075296428e-003
      -2.1327177103006259e-002 8.2525465520581955e-003
      1.0480645521375507e-002 4.1298617895707927e-002
      1.5160823465929566e-002 5.7758026866440985e-002
      -1.7965405191927510e-003 1.0226064963715278e-003
      9.4985217974797177e-004 -8.0217340033247840e-003
      -2.7307513225581009e-003 -7.3355258400080144e-003
      -5.8340810946120397e-002 1.3354147645037782e-002
      2.2576844972441390e-002 -1.4783239641476655e-003
      -1.0738186817160454e-003 2.0512375954998465e-002
      -3.3827141118383044e-002 -2.8691061993863048e-002
      1.8269855398894887e-003 -2.4537183133180564e-002
      -1.6586317274918966e-002 5.6398511079266259e-002
      2.3373401676747479e-002 -1.1749540964614356e-002
      -1.3798395018114687e-002 -1.8711806225879442e-003
      -2.4912436766440053e-002 -1.6946738220859684e-002
      -1.9041377811795004e-002 7.8992854326784042e-003
      -3.2589168621010287e-002 4.1247245350860627e-002
      1.6894104479147500e-002 -4.2650351088683548e-003
      -1.1593238609471713e-002 -3.0735373123391075e-002
      -1.6744011516081281e-002 8.0291684148991050e-004
      -3.0711203567110316e-002 5.7640582196627158e-003
      -4.0457392653098952e-002 1.5656941830472209e-002
      6.3092143057742996e-003 -1.6718394916264208e-002
      3.1272720115580318e-003 -1.7386184610621871e-002
      -1.0144518746872187e-002 -1.1713147677369674e-002
      1.8149309861497945e-002 -1.3770347890780402e-003
      -2.1285974452723466e-002 1.9117359334410991e-003
      7.9057461029317395e-003 -1.4533349029949344e-002
      4.4561109313976836e-004 -1.7634423666117515e-002
      8.1638877802733887e-004 -2.0947063276836115e-002
      -5.5408612037794579e-003 -1.4321167161746877e-002
      -2.2104268688625150e-002 -8.9734587240846604e-003
      -1.0392429046532521e-002 2.2753681216739211e-002
      7.0914254109872826e-003 -1.1631397856095300e-002
      -3.4515655840715559e-002 2.2803656444674900e-002
      9.2149339963598902e-003 3.7818832449242339e-003
      8.6795210364053760e-003 7.3796964875671002e-003
      -7.3517548122797455e-003 -2.3361264207626638e-002
      -1.6469775942309563e-002 -2.6223781508557652e-002
      -4.3026347194529538e-002 -1.6473081357427737e-002
      -2.7739091857140040e-002 -3.3870894627703522e-003
      -2.3610508098123571e-002 -3.8767045509310122e-002
      6.2278343444432558e-003 -7.6899901879932016e-003
      -1.6393556867361752e-003 2.7316705093887641e-002
      -1.2136625412210040e-002 2.9911453637244085e-002
      1.6625498691910559e-002 -2.2506281500721047e-002
      1.9366796915720783e-002 4.9325395339266505e-002
      -2.2027964189361076e-002 7.9869233634870251e-003
      -6.8652218117621986e-003 -6.1950126456431064e-003
      -2.9652839166314879e-002 1.5773994505450559e-002
      5.4472075846794435e-002 -2.1883884286148986e-002
      -2.0818011964030953e-002 9.9854629274507643e-003
      -2.0314442104534210e-002 1.5696303502492164e-002
      -2.1269328634992864e-002 -2.9786027693722891e-002
      -2.6228099058079522e-002 3.6971843241630990e-002
      -2.6099913301940916e-003 -3.2567812512088005e-002
      -8.4389058917768330e-003 -2.2881573544869083e-002
      -1.1501346184281003e-002 -3.3686966531038635e-002
      -2.9294055563894264e-002 2.7659214580720332e-004
      1.7282065217102922e-002 -5.0767059272781218e-002
      2.8982808108818855e-002 1.0493438296783155e-003
      -3.1000730433552179e-003 4.7711750659237186e-003
      1.9365115472025862e-002 -3.8581657508233729e-003
      -1.5743889327583326e-002 -5.1464464593703645e-003
      2.5214995438042627e-002 1.2069273730289626e-002
      -2.4609219890018269e-002 3.3811659565571453e-003
      4.6861618995347465e-002 -3.8669489449370681e-002
      -1.1988972334580140e-002 -4.3045456293532909e-002
      -4.0307759009874881e-003 -2.9465654160165878e-002
      2.5104419380580872e-002 -4.0709534964210058e-002
      -4.7445262865822541e-002 5.2943128814712491e-003
      2.7311337772816895e-002 -1.0275168900920910e-002
      -3.6959952703828833e-002 3.5757984004140882e-002
      3.2730345295562818e-003 2.4958059693762399e-002
      6.5110161857052901e-002 -2.1761907135445048e-002
      -2.8944399032317665e-002 1.0040748796057456e-002
      2.5291239102824110e-003 6.9770586272138143e-003
      -1.7778636250114076e-002 -1.4832290210890957e-002
      -2.2744699612926252e-002 -6.8576029973767749e-003
      1.7513014867290868e-002 -1.0384727759462281e-002
      1.4553344687407994e-002 1.2282485161798353e-002
      -3.3900915163745625e-002 -5.1911226501866518e-002
      -1.5894483529283268e-003 -1.2065828579072948e-002
      1.1991770706543347e-002 3.3349480504173828e-002
      1.4358898302161201e-002 2.3963217936980443e-002
      -2.8320874266263413e-002 9.5495610609360754e-003
      -4.8305371976825363e-003 -1.6050713732956419e-002
      2.1442253277865076e-003 -7.6265439722787900e-003
      1.9652446713393602e-002 2.1506424862624912e-002
      2.7612384878798673e-002 -1.6638033448414973e-003
      5.1244338931744252e-002 2.4676316972268981e-002
      1.3360804842295036e-002 1.0651203748403728e-002
      -2.1642060401527222e-002 1.3997382024505850e-002
      1.9059940155449959e-002 3.6034079453178762e-002
      3.1637102387275705e-002 3.9438423300339701e-003
      -4.1701700379256135e-002 -1.4266496397634583e-002
      -4.7441623081798737e-002 2.9485582777925838e-002
      -4.8042123803000089e-002 4.3318940025513612e-002
      2.2443937960062013e-002 -2.4744692694702933e-002
      -3.0674591692149571e-002 -6.5179999650195469e-002
      2.5854176390258443e-002 -1.9491901052279569e-002
      4.9886155574685571e-002 -2.3620588969166269e-002
      -2.5916726257770740e-002 -2.5877342548847318e-003
      -1.3467146677193714e-002 6.3671109086739897e-002
      4.2732499256492064e-003 4.4497511091494656e-002
      -3.3699833209834048e-003 5.4348521576850904e-002
      -4.3893680437300325e-002 1.4876014602701474e-002
      1.1331083415713738e-002 -1.9944859641608196e-002
      3.5034503352346591e-002 -7.2647206436581273e-003
      1.4572264426736557e-002 -2.2376644471320158e-002
      4.9481635393383037e-002 2.1051244851993368e-002
      4.4839881080029807e-002 4.0974057153847242e-002
      -8.7565291574717152e-003 -1.8323322723194943e-003
      -8.5527685674268092e-003 -4.3939878748436342e-002
      -6.7992501937943706e-002 -1.5634696684475272e-002
      -2.9908613725745506e-002 4.3044533325240289e-003
      2.6348440207479427e-002 -4.4128510822319951e-002
      1.0591837740668329e-002 -1.1298180968757496e-002
      -4.3031760511870985e-002 1.2738920895364813e-002
      4.1159719388340184e-002 -3.8659277998742143e-002
      2.9619367655573325e-003 -3.2243660143730334e-002
      3.4208295125743964e-002 -2.4847438460739311e-002
      1.1833981708702966e-002 3.7048495685989113e-002
      -2.9242171067312014e-003 3.4954595911846222e-002
      -1.5183624698015636e-002 8.6764548322184835e-003
      -1.0492446528191429e-002 1.0175544111448057e-002
      -1.9817697979053844e-002 -2.5532356820465871e-002
      -5.3564857709837857e-003 1.1726613723149122e-002
      4.3916281338837578e-002 1.2305491836229010e-002
      -4.8801428354729059e-002 9.5396770945986396e-003
      3.2703616928988113e-002 -4.4055402985612370e-002
      -2.5331584771881514e-002 -3.3220168558755946e-002
      1.8732380019592560e-002 -2.0933703131551271e-002
      2.1480241747484228e-002 -2.4483796338278248e-002
      -2.5511282226505661e-002 6.6342745570085950e-004
      2.2268179360460509e-003 -2.3521015665447609e-002
      2.2244591367537479e-003 7.2535372381729111e-003
      7.3576814360778202e-003 1.6240971804244900e-002
      2.5866715897123430e-002 -1.2320293099223457e-002
      -2.0848962632621156e-002 9.2157535795891782e-004
      -1.8352029066748963e-002 3.6053641277941036e-002
      1.1698801824589792e-002 -4.3083281823893546e-003
      -9.1801411611695891e-003 3.4113489084387637e-003
      2.1580533531620469e-002 -6.9425580782541563e-003
      4.4205083545156773e-002 -4.3493041708066067e-002
      -6.9900792751241472e-003 -4.6049204595332231e-002
      -3.0008034085812346e-002 2.4259321207266479e-002
      7.3279242709206067e-003 -2.2530618057101837e-003
      4.3861391061126187e-002 -7.9070348933750381e-004
      1.2025756703039518e-002 -1.3929991917657697e-002
      -2.4967013929849766e-002 1.1734885149386301e-002
      7.5174176789197184e-003 2.5000335780809967e-002
      1.2539687234147173e-002 3.5632876989782087e-003
      2.4249275475666885e-002 1.1707800971900493e-002
      1.1103022705108977e-002 4.8762350760995152e-002
      2.7276877017345817e-002 1.8941324553027543e-002
      -1.5076021928004684e-002 6.2121976757511235e-003
      8.5457877445965294e-003 7.4651121269387203e-003
      2.8617342512301711e-003 4.6699388396544564e-003
      -3.8184788399733445e-002 2.2323792550577801e-003
      -1.7032274569949525e-002 -8.3105064252807989e-003
      -1.0259133152297113e-003 4.5770742511235453e-002
      2.4014110654420547e-002 -5.6621463007733075e-002
      -9.3474428753754450e-003 -5.3618210898451986e-002
      3.6953332702047023e-002 2.8184946786554563e-002
      3.0565396958405010e-002 8.2709622958562746e-004
      9.1527210248615321e-003 -1.7859409782893187e-003
      -1.0681940077029474e-003 5.6611108998620291e-002
      3.7876763645392886e-002 5.7344742261674159e-002
      -1.2122971982231926e-002 1.8512018309227628e-002
      -2.3588831488088449e-002 1.3948928057750262e-002
      2.4032346943371200e-002 -3.3626855242440294e-002
      9.8833795653460021e-003 -4.1804501445485004e-002
      -2.5412029491512944e-002 -1.7168300053902574e-002
      2.4223400262796211e-002 -1.8207409639028803e-002
      2.4826515148919551e-002 3.3537423239963012e-002
      2.2517377416890905e-002 7.6338349728567161e-003
      -2.8004619379860150e-003 -3.6715480878372987e-002
      -6.4878299667944367e-002 5.9608100128719860e-003
      7.9226613598666216e-004 -1.4478233175979020e-002
      3.1332022936417424e-002 -1.2782218026511881e-002
      4.0670517349283550e-002 2.1874745081386437e-002
      -1.2485326027570756e-002 -2.6205305682466605e-003
      4.7769650420473736e-003 -7.0484557875278315e-003
      1.7560366406590946e-002 -1.4851645838372002e-002
      2.8525480273901338e-002 2.3729653306190032e-002
      4.8083039825948609e-002 2.4527707487941967e-002
      -2.5203792265708143e-003 3.9982523177896287e-002
      -2.2612642107285860e-002 -2.8183868667843504e-002
      -1.2768070788664581e-003 1.6014558497941981e-002
      -2.6019620511495617e-002 1.9041133357924515e-002
      4.0113738564897937e-002 2.5666599773220788e-002
      2.2191407062701774e-003 -5.4894936261708667e-003
      1.7370305015414058e-002 1.7842508659814377e-002
      -4.3526793988342222e-002 1.1423191414738564e-002
      -2.0490291339696022e-002 -1.7494007032062964e-004
      -3.7312959795014110e-002 1.0709217405491210e-002
      1.9672302727646550e-002 6.9791107908294739e-004
      7.7659467425740657e-003 -8.2929582608006931e-003
      6.2648153722626365e-003 -1.6879625502373364e-002
      -3.4505726536185694e-002 -1.3401328565764059e-002
      -1.5495701207246998e-002 1.3271003742425720e-002
      -1.8303700339037346e-002 1.9404520545762026e-003
      -1.0582476942205477e-002 -4.4781009396576886e-002
      -1.1007987209896786e-002 -1.3646263965331529e-002
      2.7908135985243488e-002 -2.1070423022116661e-002
      -9.0563099021361958e-003 -2.3928324696213227e-002
      -2.2762419327313450e-002 -1.8966858967827252e-002
      -1.1385211546004149e-003 -5.9646675633023604e-003
      2.5836557643612038e-002 6.0905888760240607e-003
      -3.4244085995592248e-002 -2.3813995764546004e-002
      -1.6675200623342337e-002 -3.4403092951837369e-002
      1.8790958761317169e-002 -1.3356252021846498e-002
      -1.4830247611570757e-002 -1.5488708637229681e-002
      2.1138423440193177e-002 -1.3907315681420179e-003
      1.2575198755574918e-002 4.1834847992902706e-003
      -1.2232559004902907e-002 -4.6058076051952484e-004
      1.2883177885042783e-002 -9.6244765501275007e-003
      3.0980685582288493e-002 -3.7404704093987627e-002
      -1.9329010476539735e-002 -2.0303801492477215e-002
      4.9603743896112400e-003 -2.9224487413406629e-002
      1.5729426050186256e-002 -1.3646843106693896e-002
      -9.8966411267118470e-003 1.5522229297645846e-002
      2.7370048450544955e-003 -1.9783418317950430e-002
      -7.1934668299550274e-003 2.0041009225887366e-002
      4.1157416016373266e-002 -6.1789177817849457e-003
      -1.5300929091207630e-002 8.1420752527947924e-003
      -1.6500310606832770e-005 2.4891622006116058e-002
      2.4498741385899220e-002 9.6038693219893632e-003
      1.8683477273754360e-002 1.7600562363686975e-003
      1.6726100013411151e-002 3.2863143252310961e-002
      2.0870286733669693e-002 -5.4079409757832736e-002
      1.2485083353253176e-002 -3.1905011845186675e-002
      5.0842164816831820e-003 3.3560246279769820e-002
      -1.3504765330292356e-002 -1.7037368957185993e-003
      -1.0057712879074849e-002 5.0694380294546572e-002
      1.8921294586535064e-003 1.4719767498290869e-002
      8.8668264681650184e-003 -1.7465770584527800e-002
      -1.7227289363526705e-002 -7.7195069306196309e-003
      -2.2838879811977002e-002 -2.4297220263670104e-002
      8.7082806110851917e-003 -3.6704292553645652e-003
      2.8185655987673915e-002 -1.5541741653330866e-002
      -1.4264749078031529e-002 -8.7672350529296780e-003
      1.9219918125103888e-002 -9.7011513848472685e-003
      -1.8324824600356948e-002 1.9350977401979747e-003
      -1.0237265138711518e-003 2.8429686614575875e-002
      2.8069682680173874e-002 2.9716446108871659e-002
      -3.5353024630659972e-002 5.8703076362420000e-003
      -1.2063291311817635e-002 1.3639673044560822e-002
      -6.3241831690131912e-003 6.5280982712035323e-003
      -2.1412076749133868e-002 1.5146355264018979e-002
      2.2293005958668243e-002 -6.7189780068678071e-003
      9.3188720630853327e-003 -3.4137875665831562e-002
      -4.9073583487549022e-003 3.1173737608521879e-002
      -1.1851042605006074e-002 1.2816321829016167e-002
      1.6940144478442956e-001 3.9492275705802854e-002
      -1.5207972807429634e-002 2.7404987890065586e-002
      1.6354554267829457e-002 3.6239283222796285e-002
      -4.8520669368647552e-002 1.9822956103589955e-002
      -1.2157114968548042e-002 -6.2329663052016740e-004
      -5.2969349934031018e-002 1.7039684671443352e-002
      2.3398464085755740e-002 -3.5679776824705030e-002
      -7.6608831858994642e-002 -7.7473388217456371e-003
      3.2767999690528710e-002 -4.1055184708322076e-002
      -3.9859961531314832e-002 -2.2364153665454835e-003
      -1.9079900901914110e-002 -5.6530263805341013e-002
      -8.7837165360296274e-003 -1.4115240820464791e-003
      -6.4741650319192906e-002 1.3969491168443506e-002
      3.1420147439278200e-002 9.2753872018625054e-003
      1.1371653848935874e-002 1.2697440286212643e-002
      -5.2495792859923798e-002 -1.3600974469180752e-003
      -1.0177194073807823e-002 7.3478856383384578e-003
      -2.1165969543833676e-002 1.0826032427328219e-002
      2.9854205114644702e-002 -1.7846996591408943e-002
      -4.9764733018146504e-002 -3.1283354266633617e-002
      1.9680893864418708e-003 -4.9411060011143197e-002
      -3.4017176805923595e-002 -4.0337766279637928e-002
      -1.1945951192967354e-002 3.1231570596767583e-002
      -5.7544338242325231e-003 -2.1825551460384628e-002
      5.6676223484105831e-003 5.3352846570037648e-003
      1.1956376367830979e-002 -1.3869160166454933e-002
      9.1759434024265094e-003 -2.3141719391162739e-002
      1.7792201190860184e-003 -3.7836404105169211e-002
      1.9537147018297403e-002 -2.1986076692998985e-002
      -3.2742303820704928e-002 -4.1267279943238963e-002
      2.8732131554498233e-002 -4.7039148655594422e-002
      -2.4874827461397009e-003 -5.7233520815521332e-003
      -4.6714423447664695e-002 -1.1267189306608869e-002
      -1.9750321226082064e-002 3.0444816803508423e-002
      6.4670536908820242e-002 -8.8577298621500935e-004
      -1.9150583986648900e-003 9.5168962452736820e-003
      3.9859306069352077e-002 1.8922577439079255e-002
      1.0226126681708771e-002 2.6183143740578074e-002
      4.9933641299995363e-002 -2.3582147188896941e-002
      4.1071481216090430e-002 -3.0051703746550640e-002
      -4.2189507279732981e-002 -6.4991188711138057e-002
      2.7372662260777944e-003 -1.8539265104159579e-004
      -7.1639562574207314e-003 4.4431154208543031e-002
      -4.3999585356134567e-002 2.6277017079619999e-003
      3.0960752981788648e-002 5.7411146576359845e-002
      -2.3470937245238705e-002 3.5759286362862824e-002
      -1.5415219590356282e-002 -4.0760633345391060e-002
      -6.7650731861748576e-003 1.1029247597023693e-002
      -2.5848316799988422e-002 -7.2021730169980680e-003
      3.4374708207254422e-003 -1.9136443751579309e-002
      2.6815679597826938e-004 3.3213706382930037e-003
      2.4652828502004880e-002 -4.8742017469285540e-002
      1.8801778784972054e-002 3.3656311971054433e-002
      -1.3602329928495131e-002 2.3386918811669540e-002
      -3.7905381298161795e-003 -1.2984354291317961e-002
      -1.8863097296838049e-004 5.6432623425788808e-002
      -5.2447731610981020e-002 7.7463361976890487e-003
      -1.1079856994083447e-002 -1.8306051693539275e-002
      -1.5392322338883699e-002 1.3889908605979093e-002
      1.9794589902495437e-002 7.9554462856605321e-002
      5.4177779784697865e-002 -4.0958680256924805e-002
      2.1924159563681690e-002 -1.0896325880851798e-002
      6.1717925756415186e-003 8.2409872764807282e-002
      2.0111947020931272e-002 3.1372822757281600e-002
      1.5689411949586368e-001 4.6442979213219264e-002
      3.2107069322432902e-002 4.0383199010711010e-002
      2.9225923636560735e-003 3.0505835772534358e-002
      -8.3684270439248060e-002 1.4374172794941388e-003
      -7.8326644508013243e-002 -4.0593467773101669e-003
      -4.3383095327508982e-002 -2.6256987824982716e-003
      1.8274279046670221e-002 -3.6395751760960132e-002
      -4.8658222473658391e-002 -4.1985835777544396e-002
      4.8292694840092179e-003 -3.5616380500512274e-002
      -2.1690972526986384e-002 1.4885102200652763e-002
      -8.0060296191589771e-003 -4.7881183192119946e-002
      3.7821504164888081e-002 1.1132993436785912e-002
      -5.1419127331474891e-002 2.2530424023047409e-004
      -1.6031791285841973e-003 3.5109637694898006e-002
      2.8504199621091748e-002 -1.1424517549245110e-002
      -2.4736069637103435e-002 1.7807441762289808e-002
      -3.1584420103403593e-002 -1.6087489080063803e-002
      3.3992660208555462e-003 -3.2705832803714236e-003
      4.2499124161460157e-002 -1.0530652861375566e-004
      -5.3987221299952967e-002 4.1852318025870743e-003
      -2.1372516867900315e-002 -6.0557767393738686e-002
      7.2907606509650348e-003 -4.1331231906984234e-002
      -1.2213787176579352e-002 1.8366502085386465e-002
      -8.8333884362135524e-003 -1.4298885302565621e-002
      3.8242713923277868e-002 1.9139939162650485e-002
      1.2653530580003134e-002 -4.0963649239689325e-003
      3.7496709075351450e-002 -1.4279655132697026e-002
      1.3868227516927045e-002 -1.9214089234598244e-002
      1.5426034351230243e-002 -5.0709361099491271e-002
      -1.8265367402906497e-002 -3.2037558216226933e-002
      2.1862938265129750e-002 -5.0686519981813637e-002
      -2.9959865702440244e-002 -9.7315333152218821e-003
      -3.9311222015507893e-002 -1.6078598732313487e-002
      -4.4580572043365956e-002 1.9406729161809196e-002
      4.4392681720727550e-002 -4.5969502990741304e-002
      8.3434703262780206e-003 -2.2893759493752179e-003
      3.0101397996339145e-002 9.3664073175778705e-003
      2.4808255551645595e-002 2.7194724759439581e-002
      6.6677849351684707e-002 1.5568888960477716e-003
      3.7676373749374492e-002 -7.4805792255553481e-003
      -2.6452677525760852e-002 -4.4340763722638038e-002
      3.6211419159796865e-002 6.0376173893335371e-003
      -1.0250173236379790e-002 3.1996210230344185e-002
      -6.0123274219652724e-002 -1.2479398973400852e-002
      1.0598888516594259e-002 3.4231759077339406e-002
      9.3645199537320013e-003 3.8811326447679657e-002
      1.1391576080444582e-002 -4.4215428550153660e-002
      -4.8098765949280045e-002 1.1692367384864174e-002
      -3.6272912888806533e-002 3.1264257794189808e-002
      3.0006354678138895e-002 -8.0047545830194498e-003
      1.9576183307922226e-002 -1.0717075175504225e-003
      5.0013530797579024e-002 -5.8464817574509775e-002
      4.3909377521231509e-002 3.9619879817811711e-002
      2.5620036918160786e-003 2.5103152822451354e-002
      1.0023006373834659e-002 1.6179230288439022e-002
      4.1579873290795336e-002 5.1999597974353717e-002
      -5.0721583678015589e-002 3.0581518815194286e-002
      2.1079690116272247e-002 -2.2897649938372509e-003
      -1.5514931136649956e-002 3.1364550849102715e-004
      1.9241300376604237e-002 7.6306431995552995e-002
      1.0068704077278895e-002 -1.3155380093830714e-002
      4.0001161332548024e-002 -5.7360380248851879e-002
      3.0776620300065765e-002 8.6579899299610005e-002
      4.6059018430669044e-004 3.5039854402747928e-002
      3.7557263886860620e-002 1.3336874408830772e-002
      5.0573489974123101e-002 3.1198605757085822e-002
      -7.1858126351305148e-003 1.3451339480504386e-003
      -8.1033215723582512e-003 -2.7331445276698469e-002
      -5.3685489353958629e-002 -2.7709297567494684e-002
      -1.2679446861293365e-002 -1.5089180248015118e-002
      -6.1410450210872404e-004 -8.7437057778635818e-003
      2.3770269896036507e-003 -4.6009489492083210e-003
      -1.6372657978791907e-002 -2.6434856682554388e-002
      -9.9190760368770402e-003 5.8723045933366073e-003
      2.0962378110682172e-002 6.8328846896661610e-003
      6.5570729274853606e-002 -1.7783767793367105e-003
      -2.9513010232828565e-002 -4.2360654923479138e-002
      -3.2329639558909099e-004 9.5111151026833363e-003
      3.2668685386736555e-002 -2.9444036753021388e-002
      1.6681551766464197e-002 3.0571734279720250e-002
      1.3995958042703201e-002 -2.5164809386978650e-002
      -2.2121714935249277e-003 -1.6061972995746045e-002
      5.3820897819059658e-003 -1.4983810962103048e-002
      -4.0594092138411537e-002 -1.4871599226573713e-003
      -2.8692275124748753e-002 -2.6645246022175609e-002
      2.4939949829371217e-002 -1.0749268696500825e-002
      7.8683742688333020e-004 -2.6731419076241339e-002
      -1.6198536256100300e-002 2.7542658894251278e-003
      6.4921316525180855e-003 2.5012602134642858e-002
      -1.1997895359132160e-002 2.4360377281017424e-002
      2.6835993964902157e-002 1.1099759985684642e-002
      1.7333128590147323e-002 3.4778939016727548e-003
      1.5220291261068270e-002 -2.3756419140216201e-002
      -9.9672606205070003e-003 6.6268874690989530e-005
      7.4701373009335281e-003 7.4661446727812318e-003
      -2.4639714492710237e-002 1.5614527593582311e-003
      -3.6300688930544854e-002 -9.6849716022977799e-003
      -1.3352723378314977e-002 1.0602795148235832e-002
      1.9857396065680870e-002 1.4601005620736213e-002
      4.3488602719508773e-002 -2.5429868237707081e-002
      -1.9729613784970800e-002 -1.0318768646310381e-002
      3.2250646510814544e-002 1.5180091693587507e-002
      7.1047279885656192e-002 -3.0214136475541806e-004
      5.9676986235980764e-003 3.7013240845020091e-002
      -3.7742404226263613e-003 7.7279699562472631e-003
      4.9236432373118380e-002 3.1688517862635580e-002
      4.0145778500773870e-003 4.9504790985459131e-002
      -6.8635477490070165e-002 2.0461597541768990e-003
      -9.6050764503834464e-003 5.9419819566704736e-003
      2.1117708069472964e-002 -3.2542999716719138e-002
      3.5858762290791185e-003 -1.2089689579474480e-002
      -2.7695422751196044e-002 -2.0753457308228855e-002
      -8.8757145924572983e-003 5.6170816205283754e-002
      3.8374637114859000e-002 1.3655123089452405e-002
      2.9121707393857842e-002 -4.0953621671710412e-002
      -2.1979002582106770e-002 -3.4113022321369202e-002
      3.2520716854057198e-002 2.0225300575328141e-002
      3.4166152208977625e-002 -1.9935187643684443e-002
      9.3532830399695455e-003 4.1215652403595260e-002
      3.6054883084821930e-002 1.0983330723611543e-002
      -1.1314666275809246e-002 1.4903834414868873e-002
      1.4229845572889857e-002 -9.3436280001932392e-003
      -9.4327665916929451e-003 -1.0099506389452230e-002
      1.9415638355461444e-002 3.7872536091984661e-002
      4.6450985129680936e-003 1.5878512531503509e-002
      2.3334337615311587e-002 -5.3871333966506819e-002
      1.2651821761964159e-002 3.3845431656947721e-002
      -6.0680568341096499e-003 2.3082685025878069e-002
      -1.3410903520751760e-001 -8.3696136833059827e-003
      -2.3074171385214056e-002 -2.2799607538682289e-002
      -3.6744175532898251e-003 -9.3961702799490211e-003
      4.1448091813756582e-002 -5.3323762393395089e-003
      -6.9094612210217812e-003 9.7918814267006424e-003
      -2.6769756924567286e-002 -3.7243980253553223e-003
      9.1216357033552589e-003 1.9926100730423821e-002
      2.3153771649316209e-002 2.7274850419133315e-002
      -3.8860800762537076e-002 -1.4120513547699632e-002
      -1.8771026193984866e-002 7.7152342634202982e-003
      1.6744775581275422e-003 4.7913839941166880e-002
      -8.3409303896056963e-004 2.8761854691884230e-002
      -1.9903045267497078e-002 -5.1112531634354912e-002
      -2.2207533260911846e-002 -2.2154208497006396e-002
      3.5389462350069803e-002 -9.9350196552077663e-003
      1.3631839551059444e-002 -2.6617135794241124e-002
      -7.8212374670356636e-003 -1.2854197410664653e-002
      -2.3448821689191844e-002 -6.2432527363306747e-003
      2.5245635999535904e-002 -6.9615809481624966e-003
      -1.0140917113376544e-002 2.8581122402636014e-003
      -6.7843594706274270e-003 4.7677584756019983e-003
      3.8586793458346605e-002 2.6518207934308619e-002
      -2.3230838135271275e-004 -5.8314565850370849e-002
      1.0088947040625702e-003 7.9466036400929682e-003
      -2.9862974949163391e-002 2.5264094601126816e-002
      1.8527913587178711e-003 5.5066745744803809e-002
      6.7579523628240618e-003 -3.0626295875646685e-002
      5.8001217314179081e-003 8.2351202747182502e-003
      6.0913400447374262e-003 -3.0410220449952185e-002
      3.2869271018678231e-002 -4.7425638710342794e-003
      -2.6128707903208554e-002 3.3512106983309434e-002
      -5.2443706226829374e-002 2.0827851850396002e-002
      -2.3328701834175779e-003 -9.0587598907172565e-003
      -2.3523573305611244e-002 1.0424494436293525e-002
      -1.2163286612788990e-002 1.3113172062553522e-002
      3.1016010669246936e-002 -7.3341109924179027e-002
      -2.9602039815216228e-002 -2.5287505063118429e-003
      1.2994855058941251e-002 2.1551810646996215e-002
      -2.7440447079338647e-002 3.1531199224953586e-002
      -2.2278849512276554e-002 4.4538642820308796e-002
      6.1654128752613981e-002 8.1022326114251093e-003
      5.3927897027081562e-002 -1.2594913040958507e-002
      3.3626792345903003e-002 2.3781217583923889e-002
      -1.2261812546414400e-002 3.3616099886992740e-002
      -2.6159481822077994e-002 1.4767115364903938e-002
      4.0623335493957261e-002 -3.6139172827779294e-002
      -1.0145949951274826e-002 1.6324968069912286e-002
      -1.5734327134851362e-002 -2.4019763647033913e-003
      -4.7071260769779272e-002 -1.4890469007109036e-002
      -7.6416074093813395e-003 2.7916991893473281e-003
      2.6929010745150739e-002 -3.0762035828472697e-002
      -3.9332340671774380e-002 4.5171939729972818e-003
      1.0113698885161726e-002 -2.5359991964025084e-002
      2.9488246674989727e-002 -3.2413700488404584e-002
      -2.3363026548938730e-002 1.7926978614011761e-002
      3.9438221980566485e-002 -4.6976158078837439e-003
      3.2940334950758286e-002 1.7201528557431098e-003
      6.1032650590233965e-003 -1.2443342549357958e-002
      -1.9164395586259243e-002 -3.2475269527868438e-002
      4.6396913343031195e-003 -8.5995939109620289e-003
      -1.9664007205943638e-002 2.9031185514184352e-002
      -8.2703106042801341e-003 -2.6401203965133409e-002
      -1.4608438099029876e-002 -2.0272900313502304e-002
      -2.9864594701620180e-002 -6.4145569510529066e-003
      1.0780686507803948e-002 -3.6396760881654312e-002
      1.1196157349706188e-002 2.3523101371963714e-002
      -4.6183460661373020e-003 5.8248135767964455e-003
      8.9295323231950163e-002 2.7081244099436047e-002
      3.1262246788451256e-002 -3.0738337224016244e-002
      5.2577282110725021e-003 -2.6717119433930028e-002
      -8.5845035577116356e-005 -2.3585676752910654e-002
      -4.6434307810311916e-002 -1.5334843209301443e-003
      2.5265205546889831e-002 1.9384388268505501e-002
      1.5547666987508592e-003 2.8463507004568643e-002
      -2.4987955205328607e-002 -1.1676326581370449e-002
      4.5825267722952860e-002 -3.9963855248864658e-002
      8.4986467422295316e-003 9.0052091959755484e-002
      1.1599516260160422e-002 -2.7389733276129279e-002
      -6.2879132968934215e-002 1.8807325305770922e-002
      -4.3818918947911886e-002 -1.2561881476848998e-002
      2.5556115404385911e-002 2.0272056578717848e-002
      -7.2748412737285734e-003 4.2816741997628166e-002
      -4.5104466172282004e-002 -2.9378958403894654e-002
      1.3349266843508163e-002 -8.8576784548131688e-003
      1.3055531476845230e-002 3.9204014392328561e-002
      -3.2365460988332234e-002 2.1263338580963038e-002
      -4.3789879053188242e-002 3.1343769085510530e-002
      5.6737820534231997e-004 1.2956277524576631e-002
      1.5479740645773853e-002 -4.5058935076351579e-002
      2.8180825188768134e-003 -3.2997775263825635e-002
      4.9131783949325301e-003 -1.4641232709802930e-003
      -2.1365467660194946e-002 2.9747234551846986e-002
      4.2485446472371180e-003 3.6110351416118402e-002
      -1.3393382132526980e-002 3.6877340181428478e-002
      6.2454676508555699e-004 4.6159792053681342e-002
      4.2474018878315582e-002 -3.6151546854985402e-002
      -6.1878559125014491e-002 -5.2251190915086464e-003
      -4.1668415291195200e-002 2.3122305017116845e-002
      -9.0344443414140413e-002 -9.2289730067886960e-003
      -6.6969294056228720e-003 9.6044075609093785e-003
      -3.6648443968739314e-002 -6.8083938313564074e-002
      -3.3449641247813981e-003 -1.4823427282356588e-002
      3.5716740772638112e-004 -3.4853223687823294e-002
      -2.8927234557614430e-002 -5.7715112287308849e-002
      -4.2731560509514668e-002 7.9112997433274712e-002
      -5.1546214656929171e-002 4.9823703474314050e-002
      -9.2978178407172249e-003 -3.6173584020385986e-002
      1.8395336537422004e-002 9.6769542905449299e-003
      9.7019645011615484e-003 -5.3283104961371210e-002
      -4.6557193836017320e-003 1.4444415175885338e-002
      1.2063748658649953e-002 -2.1876160463461195e-002
      4.4527650089817981e-002 3.3101589351991381e-002
      6.2135315787268129e-002 4.5432738853834080e-002
      -3.3214287342256565e-002 -7.4916530829749152e-003
      -4.6313275516567269e-002 2.1685344792608814e-002
      4.3483383011828906e-002 6.7945108095656733e-003
      -5.8467286212617951e-002 2.4120918973939247e-002
      2.4309540368119005e-002 -3.1769555038587811e-002
      -6.3650234675725207e-003 -6.2129471911366078e-002
      -4.7796623527348064e-002 6.9185819948594553e-003
      6.7726047566197947e-002 -4.4821465236854027e-002
      -2.2207807545108715e-002 -3.9541860997567770e-002
      4.3419692422192950e-002 -2.8056724920979031e-002
      -4.7531944298190689e-003 1.6608078325449912e-002
      2.0493545319848368e-002 -1.2122249037540809e-002
      -1.1107750605516682e-002 5.5630814795761513e-002
      2.0706135671641544e-003 -3.9073834412416530e-003
      1.7941766600829353e-002 -1.4085967533058488e-002
      -6.6596293423640185e-003 -2.7488625939733696e-002
      2.5520785260938001e-002 3.1964740623708861e-002
      -2.1181792154126914e-002 1.4804968831179412e-002
      5.1996606424198205e-002 -4.8286656195446588e-003
      8.2908688873049446e-003 -5.1747591078393836e-002
      2.0877137132679621e-002 -6.1220018268210649e-002
      -9.6766990897274099e-003 -2.4881977298042774e-002
      -4.9719372114005865e-002 1.6168492869273146e-002
      1.7255798192371448e-002 3.1114182460685036e-002
      8.4110364820281260e-003 4.5066390901293919e-002
      9.9923630882728653e-003 -1.0290783048416159e-002
      7.7555940012832850e-002 -2.1508745931336191e-002
      4.9150613790721631e-004 5.7002764422406774e-002
      1.2393034383912579e-002 -1.9299886862758384e-002
      -6.0394594558554816e-002 -6.4242584394374113e-003
      -8.0385654904546779e-003 1.4441520538419432e-002
      2.8529791185974245e-002 1.1481148043836969e-002
      3.7334670583513943e-003 1.4102153342210743e-002
      -3.4492158450484242e-002 -4.8274016060672616e-002
      3.8331112712728897e-002 -1.0270336293627693e-002
      6.6929795522031200e-003 2.4855493264299682e-002
      6.3215733390297622e-003 4.9266169057389952e-002
      -5.9008817380476655e-002 1.2236577673066707e-002
      1.2141257209533149e-002 -2.9392046701592922e-003
      1.3092594013854516e-002 -4.4225539573973509e-002
      -2.5917231006632849e-002 1.8266626304771089e-004
      3.7197870005646186e-002 -1.9260757441523300e-002
      -1.3834521705747959e-002 3.9215147894291050e-002
      -1.6356274417924987e-002 4.7783906815328049e-002
      -4.1499966427788249e-002 4.6433728359456659e-002
      1.6784311702645580e-002 3.5859553323154360e-002
      5.4039720080161516e-002 -1.9918125320918065e-002
      -6.0756067980644556e-002 -2.2695795376855791e-002
      -2.6031386172547636e-002 3.6915240712245834e-002
      -6.2605773698846609e-002 -2.1469796502030920e-002
      5.8331460395321857e-003 1.0449283223706791e-002
      -6.5371833489461031e-002 -6.2053400494234245e-002
      1.5570425824215242e-002 -3.4471488104483021e-002
      3.6478042332773075e-002 -2.3823247240192844e-002
      -5.4299016905184298e-003 -4.4422166081810967e-002
      -5.2365279249626362e-002 1.0330166999632813e-001
      -4.7773524963002752e-002 5.5110473697024619e-002
      6.6942837177488617e-003 -3.4948422092165268e-002
      -2.2015128533029282e-002 -6.4954763396541278e-003
      1.0530783609580870e-002 -7.3787738044827827e-002
      4.2118462207136720e-002 -1.4999163894882574e-002
      8.3665858199877853e-003 -4.9620171284535048e-003
      6.2736428224234031e-002 3.7412621680665087e-002
      6.8510335424395802e-002 5.7581800058122995e-002
      -6.4083285093555278e-003 -6.0806837620734407e-003
      2.2103138377589028e-003 -5.0155054310107687e-003
      3.4937904432188853e-002 -4.6006393453768132e-003
      -6.5919768871095116e-002 2.7663286217676417e-002
      2.5930580206040554e-002 -4.7892624985404350e-002
      5.7465741839303067e-003 -3.5709868552853574e-002
      -5.6582908771573188e-002 5.1301047219492694e-003
      5.8314346823572054e-002 -4.6931787531598421e-002
      -1.8100339942156849e-002 -3.6545100264519605e-002
      4.3760938871180162e-002 -3.8901868006947782e-002
      5.3134247917326263e-003 1.6307321823716938e-002
      -1.4909381701384016e-002 -1.8889543258845849e-002
      -3.4118156022844744e-002 2.5475960670082943e-002
      -6.0935434660801084e-003 -4.4009758273079761e-003
      2.9931632860316776e-002 -2.4906255718509050e-002
      -6.4201646064101434e-002 3.4836248922935974e-003
      2.2115472160959240e-002 -1.3742997931284917e-002
      -5.2360860907639979e-003 -1.7935072538576440e-002
      -2.0259902227956424e-002 -2.6239595209142461e-002
      -1.3537916438111957e-002 -1.2268117361047553e-002
      2.0660902611609366e-002 -2.7729770298085907e-003
      -1.6455944857606413e-002 3.0652399331290991e-002
      4.3105381617773807e-005 -3.4520206214081195e-002
      -8.0477121408319679e-003 1.4003563664232575e-002
      2.2080920073177197e-002 1.1054033414610203e-002
      3.0100158046646949e-002 -2.5542810397228004e-003
      3.9589280262355572e-002 8.4925216321591810e-004
      1.5407629241956747e-002 -1.0824855558158174e-002
      -1.0058084577018369e-002 3.0602490884884270e-002
      -1.2572649911155588e-002 -1.1686442739104972e-002
      6.3240833753675493e-002 5.0347991011075059e-002
      3.1759351741876421e-003 -8.5982953192201422e-003
      2.6588826621950258e-002 -7.8364088475281618e-003
      -1.2317043824978445e-002 6.6883844350045926e-003
      4.9785972402374673e-002 2.4823490127420012e-002
      -3.2431840333012182e-005 2.5032470698568957e-002
      2.6091245994833739e-002 -1.0487530005229403e-003
      1.8076733125314742e-002 -1.8235233003688133e-002
      -3.0571065827035920e-002 1.3801125100120715e-002
      3.1881704374374258e-003 -1.2240542407386219e-002
      -1.8372952794005026e-002 1.5010950143547856e-002
      1.8175432541407108e-002 1.4005314871048174e-002
      -2.6684918709234458e-002 3.0390809645494350e-002
      -4.3659647862078861e-003 1.9849370529181048e-002
      -5.0525531160393478e-003 9.3869312050474576e-003
      -1.5955011007561783e-002 -5.3249246088323968e-003
      -7.6338039846972272e-003 -2.1069313805199674e-002
      6.0533615329376308e-003 -1.2821962347731589e-002
      4.2774013779171456e-003 -8.3684242857929832e-004
      2.7170219968816562e-003 -3.0114482408320983e-002
      1.4102441539730186e-002 -8.3123202375286927e-003
      -1.5885150721364344e-002 -3.9761662967993175e-003
      -1.6996885851308454e-004 2.0401381836607797e-003
      1.1786406523087697e-002 1.6499355485258643e-002
      -4.7810208609640123e-003 1.0696800225085866e-002
      -1.0929589293027561e-003 2.7774681165912189e-002
      2.5739133584545791e-003 1.0093342387187452e-002
      1.7052045117913462e-002 -2.2555757029078125e-002
      1.0116243866765375e-002 -5.9949540139509483e-003
      1.2591199223499119e-002 -2.0079380919902606e-002
      1.6636282197199551e-002 -1.7753069932562152e-002
      -8.4499441766419387e-004 2.1456624325270911e-002
      -3.2252397169038596e-003 -2.2544200684348054e-002
      5.6740857168482888e-003 1.3219404826105556e-002
      4.9471792346076548e-003 2.0683148267725816e-002
      2.5361708004329676e-002 -2.6029803819998268e-002
      2.7847539214989583e-002 1.2153004138592065e-002
      -1.5064881632179945e-003 6.1376948859801980e-003
      8.6056494924668849e-003 -6.0221832770009191e-003
      1.3763421135070314e-002 2.2579950573256746e-002
      -3.6739960440205482e-003 -2.6200894759362096e-002
      1.4764813624633520e-002 2.0252688989036916e-002
      2.9579863574382310e-002 -2.4597337038263492e-003
      5.8940769746964822e-003 1.5673322235266695e-002
      -6.3989752391314892e-003 -2.7986772868474275e-002
      -3.8015290464188424e-002 8.8590532490743692e-003
      5.6092573077989212e-003 -1.5797289067639442e-002
      2.2335968410461975e-002 -1.1785227830876406e-002
      -7.6600698410177028e-003 -1.1160514582915530e-002
      4.0748364142809676e-002 -3.9050644406417438e-003
      -3.7335799649141549e-002 -6.9182737782800792e-003
      1.9596339696014545e-002 -2.5640959450967081e-003
      -2.6186220950529825e-003 2.3188509659364823e-002
      2.1965286472558809e-002 3.1343817872990481e-002
      -2.2914494358017878e-004 4.0383267199836051e-002
      1.9778446009245651e-002 1.7663679871941420e-002
      1.2889507364975938e-002 4.9655460994451322e-003
      2.2782957513051004e-002 -1.5712733994176956e-002
      -1.9217080118752054e-002 -1.3033619556430794e-002
      -2.5851039803257675e-002 1.2602384798762664e-003
      -5.2641929729736470e-002 7.1514612084884336e-003
      8.1131407624410734e-003 -1.0067297200243018e-002
      1.1543934876697300e-002 -7.1241540925719906e-003
      -1.5778951685457274e-002 1.8071876601401787e-002
      1.9374255546616851e-005 -3.6593436356422100e-002
      -1.8462142522925301e-002 1.0508666891057103e-002
      -1.3080680566340003e-002 1.8602671518248695e-002
      2.5610088232516336e-003 1.3811527524968774e-002
      -1.6355640264339315e-002 -2.7034750526038376e-002
      6.3856374030332478e-003 -3.4370074515715394e-003
      -1.6226047259188664e-002 -9.5827408324995235e-003
      1.7332054907990179e-002 1.8754941778727139e-002
      2.8288308332719498e-003 -1.4922455635853312e-002
      -4.1455581138804612e-003 9.7965514817981696e-003
      1.0281483494556329e-002 -2.3786466697610499e-003
      -1.8411445576519189e-002 4.8679678927497161e-003
      -1.8236864752382246e-004 -2.4913457509638817e-002
      -1.1872359804978003e-002 -1.8452266581440394e-002
      7.2154389068638223e-004 -8.5466187244895037e-003
      1.7894610937601008e-003 -2.8756275098973969e-002
      -1.5743151556520108e-002 -4.1136183783151809e-004
      2.8003973295935208e-002 4.1802296763580726e-003
      1.9106461482200496e-002 -1.5267959249359621e-003
      2.6199214216654946e-002 -1.2743203840815244e-002
      -9.9759813526336932e-003 4.0221872921084680e-002
      4.0300590433469868e-002 3.4999294329336260e-002
      5.0166994999493704e-003 1.9529206321058507e-002
      -3.0924767310418121e-002 -7.5250836035136246e-003
      1.7704403318077360e-002 -9.3806405607768460e-003
      -3.4686282053631145e-004 -3.6091127624309598e-002
      -2.0309926359115440e-003 -2.5403757260347871e-002
      -6.6015900996173613e-003 3.2980385317066666e-003
      2.5514787795446643e-002 -6.4890829146576042e-003
      1.1952915344425991e-002 3.3664268851274798e-002
      -2.6586635369975020e-002 1.5972515594004262e-002
      6.4127591944593797e-003 6.6071579303710352e-003
      -4.1711653643777659e-003 -1.6620800490176054e-002
      -1.4731683708277852e-002 -2.6547000409626903e-002
      -9.9031516656201343e-003 -1.9084920150775724e-002
      -1.2432159154484116e-002 2.9366430819574955e-002
      -4.7379721899262831e-003 -1.5716921415270674e-002
      -7.0880355596342646e-003 -1.8935192412266388e-002
      -2.0474408865590717e-002 3.0087012723127287e-002
      -1.2676992941776216e-002 -2.0579455826551796e-002
      1.4562882124397982e-002 -6.8914693542567289e-003
      -2.7218881916712553e-002 -7.1789233608091857e-003
      -1.8608070542442179e-002 5.1244691311599097e-003
      -1.5773302231298053e-002 -3.4510740825218914e-003
      -3.8186257453864066e-003 -1.2366366562535409e-002
      1.8892696203292397e-002 -1.7817162926351129e-002
      1.7334113319408390e-002 3.0132328845430465e-002
      -5.2562278166223321e-004 1.1740291160812634e-002
      1.5236903210217645e-002 7.4263787597261500e-003
      3.8783602258164968e-001 4.7487858901034137e-002
      2.0505875110042041e-002 7.5295073651796676e-002
      4.4040427078651335e-002 5.9783589355831078e-002
      -8.5311184157374584e-002 3.0028891011633876e-002
      -2.6936134879892770e-002 1.1665590105960582e-002
      -5.5573640787219943e-002 9.2385263656760887e-003
      -1.5137499185159485e-002 -2.8364273378754190e-002
      -6.1262229056189901e-002 -6.6283226154869382e-002
      4.9489117639849971e-002 -2.7610203324505242e-002
      -3.1132007761692154e-002 -1.4509469371769662e-002
      -2.0754150895095982e-002 -9.3420528505592126e-002
      6.9222241139422968e-003 -2.0621499151819156e-002
      -2.1356719884235289e-002 4.9074778470538455e-002
      6.3438898176153002e-002 1.2801309857831114e-002
      -1.6123101890198877e-002 2.6846927487007833e-002
      -2.3072268418080841e-002 1.3023589056800504e-002
      -1.8509997358019909e-002 2.2964425019187978e-002
      -2.5284747374788004e-003 1.8342111748064206e-002
      3.6377901642820558e-002 2.6083632739906656e-002
      -6.8794909225636205e-002 -1.3377382599885910e-002
      -3.6700114156056771e-002 -6.2741827089772592e-002
      -5.5852371553216686e-002 -6.5000535423769018e-002
      -5.0381071764881019e-003 7.2143104059764707e-002
      2.4306110722642164e-002 -1.7436641718381527e-002
      3.7610522070146625e-002 -1.8620028294479053e-002
      -1.9900449181712715e-002 -7.7037249157529838e-002
